FANN_FLO_2.0
num_layers=3
learning_rate=0.700000
connection_rate=1.000000
shortcut_connections=0
learning_momentum=0.000000
training_algorithm=2
train_error_function=1
train_stop_function=0
cascade_output_change_fraction=0.010000
quickprop_decay=-0.000100
quickprop_mu=1.750000
rprop_increase_factor=1.200000
rprop_decrease_factor=0.500000
rprop_delta_min=0.000000
rprop_delta_max=50.000000
rprop_delta_zero=0.500000
cascade_output_stagnation_epochs=12
cascade_candidate_change_fraction=0.010000
cascade_candidate_stagnation_epochs=12
cascade_max_out_epochs=150
cascade_max_cand_epochs=150
cascade_num_candidate_groups=2
bit_fail_limit=3.49999994039535522461e-01
cascade_candidate_limit=1.00000000000000000000e+03
cascade_weight_multiplier=4.00000005960464477539e-01
cascade_activation_functions_count=6
cascade_activation_functions=3 5 7 8 10 11 
cascade_activation_steepnesses_count=4
cascade_activation_steepnesses=2.50000000000000000000e-01 5.00000000000000000000e-01 7.50000000000000000000e-01 1.00000000000000000000e+00 
layer_sizes=79 31 2 
neurons (num_inputs, activation_function, activation_steepness)=(0, 0, 0.00000000000000000000e+00) (0, 0, 0.00000000000000000000e+00) (0, 0, 0.00000000000000000000e+00) (0, 0, 0.00000000000000000000e+00) (0, 0, 0.00000000000000000000e+00) (0, 0, 0.00000000000000000000e+00) (0, 0, 0.00000000000000000000e+00) (0, 0, 0.00000000000000000000e+00) (0, 0, 0.00000000000000000000e+00) (0, 0, 0.00000000000000000000e+00) (0, 0, 0.00000000000000000000e+00) (0, 0, 0.00000000000000000000e+00) (0, 0, 0.00000000000000000000e+00) (0, 0, 0.00000000000000000000e+00) (0, 0, 0.00000000000000000000e+00) (0, 0, 0.00000000000000000000e+00) (0, 0, 0.00000000000000000000e+00) (0, 0, 0.00000000000000000000e+00) (0, 0, 0.00000000000000000000e+00) (0, 0, 0.00000000000000000000e+00) (0, 0, 0.00000000000000000000e+00) (0, 0, 0.00000000000000000000e+00) (0, 0, 0.00000000000000000000e+00) (0, 0, 0.00000000000000000000e+00) (0, 0, 0.00000000000000000000e+00) (0, 0, 0.00000000000000000000e+00) (0, 0, 0.00000000000000000000e+00) (0, 0, 0.00000000000000000000e+00) (0, 0, 0.00000000000000000000e+00) (0, 0, 0.00000000000000000000e+00) (0, 0, 0.00000000000000000000e+00) (0, 0, 0.00000000000000000000e+00) (0, 0, 0.00000000000000000000e+00) (0, 0, 0.00000000000000000000e+00) (0, 0, 0.00000000000000000000e+00) (0, 0, 0.00000000000000000000e+00) (0, 0, 0.00000000000000000000e+00) (0, 0, 0.00000000000000000000e+00) (0, 0, 0.00000000000000000000e+00) (0, 0, 0.00000000000000000000e+00) (0, 0, 0.00000000000000000000e+00) (0, 0, 0.00000000000000000000e+00) (0, 0, 0.00000000000000000000e+00) (0, 0, 0.00000000000000000000e+00) (0, 0, 0.00000000000000000000e+00) (0, 0, 0.00000000000000000000e+00) (0, 0, 0.00000000000000000000e+00) (0, 0, 0.00000000000000000000e+00) (0, 0, 0.00000000000000000000e+00) (0, 0, 0.00000000000000000000e+00) (0, 0, 0.00000000000000000000e+00) (0, 0, 0.00000000000000000000e+00) (0, 0, 0.00000000000000000000e+00) (0, 0, 0.00000000000000000000e+00) (0, 0, 0.00000000000000000000e+00) (0, 0, 0.00000000000000000000e+00) (0, 0, 0.00000000000000000000e+00) (0, 0, 0.00000000000000000000e+00) (0, 0, 0.00000000000000000000e+00) (0, 0, 0.00000000000000000000e+00) (0, 0, 0.00000000000000000000e+00) (0, 0, 0.00000000000000000000e+00) (0, 0, 0.00000000000000000000e+00) (0, 0, 0.00000000000000000000e+00) (0, 0, 0.00000000000000000000e+00) (0, 0, 0.00000000000000000000e+00) (0, 0, 0.00000000000000000000e+00) (0, 0, 0.00000000000000000000e+00) (0, 0, 0.00000000000000000000e+00) (0, 0, 0.00000000000000000000e+00) (0, 0, 0.00000000000000000000e+00) (0, 0, 0.00000000000000000000e+00) (0, 0, 0.00000000000000000000e+00) (0, 0, 0.00000000000000000000e+00) (0, 0, 0.00000000000000000000e+00) (0, 0, 0.00000000000000000000e+00) (0, 0, 0.00000000000000000000e+00) (0, 0, 0.00000000000000000000e+00) (0, 0, 0.00000000000000000000e+00) (79, 6, 5.00000000000000000000e-01) (79, 6, 5.00000000000000000000e-01) (79, 6, 5.00000000000000000000e-01) (79, 6, 5.00000000000000000000e-01) (79, 6, 5.00000000000000000000e-01) (79, 6, 5.00000000000000000000e-01) (79, 6, 5.00000000000000000000e-01) (79, 6, 5.00000000000000000000e-01) (79, 6, 5.00000000000000000000e-01) (79, 6, 5.00000000000000000000e-01) (79, 6, 5.00000000000000000000e-01) (79, 6, 5.00000000000000000000e-01) (79, 6, 5.00000000000000000000e-01) (79, 6, 5.00000000000000000000e-01) (79, 6, 5.00000000000000000000e-01) (79, 6, 5.00000000000000000000e-01) (79, 6, 5.00000000000000000000e-01) (79, 6, 5.00000000000000000000e-01) (79, 6, 5.00000000000000000000e-01) (79, 6, 5.00000000000000000000e-01) (79, 6, 5.00000000000000000000e-01) (79, 6, 5.00000000000000000000e-01) (79, 6, 5.00000000000000000000e-01) (79, 6, 5.00000000000000000000e-01) (79, 6, 5.00000000000000000000e-01) (79, 6, 5.00000000000000000000e-01) (79, 6, 5.00000000000000000000e-01) (79, 6, 5.00000000000000000000e-01) (79, 6, 5.00000000000000000000e-01) (79, 6, 5.00000000000000000000e-01) (0, 6, 0.00000000000000000000e+00) (31, 4, 5.00000000000000000000e-01) (0, 4, 0.00000000000000000000e+00) 
connections (connected_to_neuron, weight)=(0, 1.29414868354797363281e+00) (1, 1.47077858448028564453e+00) (2, 1.23919200897216796875e+00) (3, -6.22302830219268798828e-01) (4, 1.47533726692199707031e+00) (5, -1.06629538536071777344e+00) (6, 4.64803457260131835938e+00) (7, 3.52923202514648437500e+00) (8, 9.85573232173919677734e-01) (9, 2.00740885734558105469e+00) (10, -3.10544639825820922852e-01) (11, -1.47009050846099853516e+00) (12, -8.64038705825805664062e-01) (13, -1.03796705603599548340e-01) (14, 6.63542866706848144531e-01) (15, 1.86910176277160644531e+00) (16, -1.68547928333282470703e+00) (17, -4.39196586608886718750e+00) (18, 3.00879538059234619141e-01) (19, 9.69755291938781738281e-01) (20, -5.05719363689422607422e-01) (21, -1.07427561283111572266e+00) (22, -2.95235252380371093750e+00) (23, 2.37090611457824707031e+00) (24, 5.48870897293090820312e+00) (25, -2.97718310356140136719e+00) (26, 2.17210807800292968750e+01) (27, -6.01458370685577392578e-01) (28, -3.08036893606185913086e-01) (29, 6.37546539306640625000e+00) (30, 5.84620523452758789062e+00) (31, 5.96620988845825195312e+00) (32, -2.61572408676147460938e+00) (33, -5.06734549999237060547e-01) (34, 1.94766736030578613281e+00) (35, -3.45636296272277832031e+00) (36, 6.52100861072540283203e-01) (37, -1.85704195499420166016e+00) (38, -1.06322062015533447266e+00) (39, -2.74684977531433105469e+00) (40, 1.87789988517761230469e+00) (41, -3.48831129074096679688e+00) (42, 2.76420001983642578125e+01) (43, -4.03448909521102905273e-01) (44, 2.22023859620094299316e-01) (45, 3.87541151046752929688e+00) (46, 1.04109787940979003906e+00) (47, -2.14953541755676269531e+00) (48, -2.73873996734619140625e+00) (49, 1.04829967021942138672e+00) (50, 5.18434166908264160156e-01) (51, -1.28539609909057617188e+00) (52, 5.88308334350585937500e+00) (53, -8.31243813037872314453e-01) (54, 8.53506028652191162109e-01) (55, -2.15803241729736328125e+00) (56, 2.27566123008728027344e+00) (57, -4.10287904739379882812e+00) (58, -4.21284294128417968750e+00) (59, -6.40346586704254150391e-01) (60, 9.58052921295166015625e+00) (61, 3.25481343269348144531e+00) (62, 3.21726703643798828125e+00) (63, 3.06822627782821655273e-01) (64, 2.13574743270874023438e+00) (65, 3.54379606246948242188e+00) (66, 3.42973780632019042969e+00) (67, -6.36464893817901611328e-01) (68, 2.94264721870422363281e+00) (69, 9.49019849300384521484e-01) (70, -4.54512797296047210693e-02) (71, -1.92400670051574707031e+00) (72, -1.04269063472747802734e+00) (73, 5.24600982666015625000e+00) (74, -2.22147369384765625000e+00) (75, -1.51995047926902770996e-01) (76, 4.39635664224624633789e-01) (77, 4.97660827636718750000e+00) (78, 3.72526049613952636719e-01) (0, 2.04438328742980957031e+00) (1, -8.01894247531890869141e-01) (2, 6.47859275341033935547e-01) (3, -4.89350110292434692383e-02) (4, -1.32214516401290893555e-01) (5, -3.98859858512878417969e-01) (6, -9.64254558086395263672e-01) (7, -1.01840019226074218750e+01) (8, 4.98429119586944580078e-01) (9, 6.52233600616455078125e-01) (10, -1.39887481927871704102e-01) (11, -1.27406752109527587891e+00) (12, -1.01642870903015136719e+00) (13, 2.39828372001647949219e+00) (14, 4.92454499006271362305e-01) (15, -2.31859421730041503906e+00) (16, 2.51599636077880859375e+01) (17, 1.08304999768733978271e-01) (18, 2.06667137145996093750e+00) (19, 3.66371750831604003906e+00) (20, -2.14865893125534057617e-01) (21, 3.84053528308868408203e-01) (22, -1.58218002319335937500e+00) (23, 1.90174520015716552734e-01) (24, -5.75026094913482666016e-01) (25, 1.49601006507873535156e+00) (26, -5.81221461296081542969e-01) (27, -2.02037051320075988770e-01) (28, 5.30345916748046875000e+00) (29, 1.95088922977447509766e+00) (30, -4.63103860616683959961e-01) (31, 1.27571926116943359375e+01) (32, -6.48679614067077636719e-01) (33, 1.75089149475097656250e+01) (34, -7.97246932983398437500e-01) (35, 1.63243508338928222656e+00) (36, 1.79266464710235595703e+00) (37, 9.61611419916152954102e-02) (38, 2.58705347776412963867e-01) (39, 2.25477886199951171875e+00) (40, 3.48352718353271484375e+00) (41, -2.28014111518859863281e+00) (42, 6.03421640396118164062e+00) (43, 1.53828203678131103516e+00) (44, 1.47292137145996093750e+00) (45, 5.00945281982421875000e+00) (46, -1.91060340404510498047e+00) (47, -2.67127466201782226562e+00) (48, 2.89822483062744140625e+00) (49, 5.28178787231445312500e+00) (50, -9.40593898296356201172e-01) (51, 2.41411323547363281250e+01) (52, 1.80495345592498779297e+00) (53, -1.22661638259887695312e+00) (54, -5.58811521530151367188e+00) (55, -3.78151416778564453125e+00) (56, 6.41280293464660644531e-01) (57, 4.50978422164916992188e+00) (58, 1.65314209461212158203e+00) (59, 3.44799842834472656250e+01) (60, 9.82953906059265136719e-01) (61, 4.89541053771972656250e-01) (62, 2.32424187660217285156e+00) (63, 6.89341366291046142578e-01) (64, -3.04946327209472656250e+00) (65, -5.49768447875976562500e+00) (66, 6.72505426406860351562e+00) (67, -2.38966047763824462891e-01) (68, 2.01384234428405761719e+00) (69, 6.24701559543609619141e-01) (70, -9.66730833053588867188e-01) (71, 1.75919270515441894531e+00) (72, 9.20814990997314453125e+00) (73, -1.45085111260414123535e-01) (74, 2.51426267623901367188e+00) (75, -4.72436189651489257812e+00) (76, 4.55066949129104614258e-01) (77, 1.95180273056030273438e+00) (78, -4.80517446994781494141e-02) (0, 2.94809389114379882812e+00) (1, 4.10412371158599853516e-01) (2, -1.63067066669464111328e+00) (3, 1.46493411064147949219e+00) (4, 4.86439085006713867188e+00) (5, 1.23542106151580810547e+00) (6, 2.67253136634826660156e+00) (7, 2.27874493598937988281e+00) (8, 1.15468273162841796875e+01) (9, -5.60403394699096679688e+00) (10, -4.44809287786483764648e-01) (11, -1.66052856445312500000e+01) (12, -1.81329846382141113281e-01) (13, -9.08675432205200195312e-01) (14, 2.04664850234985351562e+00) (15, -6.16593778133392333984e-01) (16, 5.18722869455814361572e-02) (17, -5.89627921581268310547e-01) (18, -1.25232243537902832031e+00) (19, -1.62857460975646972656e+00) (20, 1.96043243408203125000e+01) (21, 8.77208948135375976562e-01) (22, 2.63427317142486572266e-01) (23, -2.22396564483642578125e+00) (24, 2.53751254081726074219e+00) (25, 1.25371766090393066406e+00) (26, -1.18611156940460205078e+00) (27, -6.95361137390136718750e-01) (28, 1.90831816196441650391e+00) (29, 3.79032611846923828125e-01) (30, -2.57783675193786621094e+00) (31, 9.21765995025634765625e+00) (32, 2.46071577072143554688e+00) (33, -1.37437176704406738281e+00) (34, -1.08446240425109863281e-01) (35, -4.09069013595581054688e+00) (36, -1.69781124591827392578e+00) (37, 3.65661311149597167969e+00) (38, 5.55773639678955078125e+00) (39, 3.34286041259765625000e+01) (40, -2.67603278160095214844e-01) (41, 7.79364764690399169922e-01) (42, 4.20211067199707031250e+01) (43, 7.08578262329101562500e+01) (44, -3.02860093116760253906e+00) (45, 2.96555876731872558594e+00) (46, 3.45411658287048339844e-01) (47, -7.85846590995788574219e-01) (48, -6.24694061279296875000e+00) (49, 4.92802810668945312500e+01) (50, 5.43722248077392578125e+00) (51, 1.79064121246337890625e+01) (52, 1.67012810707092285156e+00) (53, -1.82177245616912841797e+00) (54, 4.54600763320922851562e+00) (55, 1.54911863803863525391e+00) (56, 1.10923564434051513672e+00) (57, 2.57312417030334472656e+00) (58, 5.38506412506103515625e+00) (59, -1.57463586330413818359e+00) (60, 1.50170040130615234375e+00) (61, 2.98444709777832031250e+01) (62, -3.19604277610778808594e+00) (63, -8.47138023376464843750e+00) (64, 6.60658478736877441406e-01) (65, -1.38935875892639160156e+00) (66, -2.22049164772033691406e+00) (67, 1.07198703289031982422e+00) (68, 1.03291761875152587891e+00) (69, -4.68114089965820312500e+00) (70, -3.16987681388854980469e+00) (71, 1.02094161510467529297e+00) (72, 4.16785627603530883789e-01) (73, 1.54713404178619384766e+00) (74, 2.31043410301208496094e+00) (75, 5.91674852371215820312e+00) (76, 1.43308126926422119141e+00) (77, 2.30354957580566406250e+01) (78, 1.59953325986862182617e-01) (0, 8.91346514225006103516e-01) (1, -3.04854464530944824219e+00) (2, 5.03828942775726318359e-01) (3, 8.49470257759094238281e-01) (4, 5.39027333259582519531e-01) (5, 7.90011882781982421875e-01) (6, -1.25810348987579345703e+00) (7, -1.85545098781585693359e+00) (8, 7.17880874872207641602e-02) (9, 3.79060673713684082031e+00) (10, 1.23307693004608154297e+00) (11, 1.59214007854461669922e+00) (12, 7.20384502410888671875e+00) (13, -1.50226235389709472656e+00) (14, -1.47166085243225097656e+00) (15, 5.26872754096984863281e-01) (16, -6.70612037181854248047e-01) (17, -8.66033315658569335938e-01) (18, -2.10139751434326171875e+00) (19, 2.01985845342278480530e-03) (20, 2.29837819933891296387e-01) (21, -1.23815202713012695312e+00) (22, 1.59673166275024414062e+00) (23, -5.26752024888992309570e-02) (24, -1.33949816226959228516e-01) (25, 5.76755821704864501953e-01) (26, 1.32343649864196777344e+00) (27, -6.83837592601776123047e-01) (28, 6.97143673896789550781e-01) (29, -1.81544423103332519531e+00) (30, -6.89958751201629638672e-01) (31, -9.03037905693054199219e-01) (32, 2.94551038742065429688e+00) (33, 1.60496377944946289062e+00) (34, 9.41132843494415283203e-01) (35, 2.37813496589660644531e+00) (36, 5.90226709842681884766e-01) (37, 7.00295388698577880859e-01) (38, -3.62791419029235839844e+00) (39, -6.58466279506683349609e-01) (40, 4.08694297075271606445e-01) (41, -1.05032779276371002197e-01) (42, 1.99523711204528808594e+00) (43, 1.38590931892395019531e+00) (44, 1.92709732055664062500e+00) (45, 4.35474157333374023438e+00) (46, -2.76404333114624023438e+00) (47, 9.23037156462669372559e-02) (48, -3.21690511703491210938e+00) (49, -2.69299358129501342773e-01) (50, -2.70618408918380737305e-01) (51, -1.89663439989089965820e-01) (52, 7.93793535232543945312e+00) (53, -1.58538591861724853516e+00) (54, -1.14412866532802581787e-02) (55, 2.00474953651428222656e+00) (56, 6.64556026458740234375e-01) (57, -6.01459085941314697266e-01) (58, -2.74189531803131103516e-01) (59, -1.75773692131042480469e+00) (60, -1.14302957057952880859e+00) (61, 2.37365007400512695312e+00) (62, 7.79611587524414062500e-01) (63, 1.56125402450561523438e+00) (64, -2.48977947235107421875e+00) (65, 8.00984919071197509766e-01) (66, -2.87769585847854614258e-01) (67, 2.52296423912048339844e+00) (68, 4.27769839763641357422e-01) (69, 2.30958771705627441406e+00) (70, -8.65180313587188720703e-01) (71, 1.24877369403839111328e+00) (72, 8.29601705074310302734e-01) (73, -6.56031072139739990234e-02) (74, -9.35230016708374023438e-01) (75, -1.62313628196716308594e+00) (76, -1.32780480384826660156e+00) (77, -3.63248515129089355469e+00) (78, 1.01996608078479766846e-01) (0, -3.49022954702377319336e-01) (1, -2.51260817050933837891e-01) (2, 7.37983822822570800781e-01) (3, -6.44420921802520751953e-01) (4, 1.65309831500053405762e-01) (5, -2.33512789011001586914e-01) (6, 8.80086541175842285156e-01) (7, 6.49369597434997558594e-01) (8, -7.85488605499267578125e-01) (9, -7.60605752468109130859e-01) (10, -2.32427939772605895996e-01) (11, -3.04226815700531005859e-01) (12, 1.72236412763595581055e-01) (13, -3.01751077175140380859e-01) (14, 3.27885150909423828125e-01) (15, 3.55564355850219726562e-01) (16, 5.96684575080871582031e-01) (17, -6.07455551624298095703e-01) (18, -1.68630525469779968262e-01) (19, 6.58301949501037597656e-01) (20, 2.73161847144365310669e-02) (21, 1.31675899028778076172e-01) (22, 6.22897259891033172607e-02) (23, 1.14501237869262695312e+00) (24, 3.97075057029724121094e-01) (25, 8.18050801753997802734e-01) (26, -9.91945713758468627930e-02) (27, 1.17105519771575927734e+00) (28, -4.33370210230350494385e-02) (29, 1.47154033184051513672e-01) (30, -2.33569717407226562500e+00) (31, -1.48956375196576118469e-02) (32, 1.00400292873382568359e+00) (33, -3.36436480283737182617e-02) (34, 1.02432847023010253906e-01) (35, -5.18050718307495117188e+00) (36, 2.09032833576202392578e-01) (37, 8.12074095010757446289e-02) (38, 3.60641121864318847656e-01) (39, 1.15714681148529052734e+00) (40, -7.52501249313354492188e-01) (41, 7.54804670810699462891e-01) (42, -2.30981722474098205566e-01) (43, 6.28500729799270629883e-02) (44, 3.14140468835830688477e-01) (45, -5.56197315454483032227e-02) (46, -2.14605882763862609863e-01) (47, -6.32161474227905273438e+00) (48, 5.68993270397186279297e-01) (49, -5.04371821880340576172e-01) (50, 2.89825588464736938477e-01) (51, 4.57100242376327514648e-01) (52, -1.97583273053169250488e-01) (53, -2.67208218574523925781e-01) (54, -1.71880349516868591309e-01) (55, 3.31691533327102661133e-01) (56, -2.87237435579299926758e-01) (57, 1.14235162734985351562e+00) (58, 5.58726310729980468750e-01) (59, 7.20045447349548339844e-01) (60, -1.09773099422454833984e+00) (61, -6.03520125150680541992e-02) (62, 1.88512718677520751953e+00) (63, -5.10758340358734130859e-01) (64, 3.37562322616577148438e-01) (65, 9.48112905025482177734e-01) (66, -1.06934115290641784668e-01) (67, 1.92180454730987548828e-01) (68, 7.23308697342872619629e-02) (69, -6.72933876514434814453e-01) (70, 2.20066860318183898926e-01) (71, 1.36981949210166931152e-01) (72, 2.74226397275924682617e-01) (73, -5.80957055091857910156e-01) (74, -1.62487578392028808594e+00) (75, -6.93927928805351257324e-02) (76, -1.04131662845611572266e+00) (77, 1.80786430835723876953e+00) (78, -6.38551115989685058594e-02) (0, 1.44519969820976257324e-01) (1, -4.08104848861694335938e+00) (2, -1.63861918449401855469e+00) (3, -4.55035001039505004883e-01) (4, 9.64067935943603515625e-01) (5, 5.55797278881072998047e-01) (6, -2.41807460784912109375e+00) (7, 6.79553985595703125000e-01) (8, -1.47347867488861083984e+00) (9, -2.35718750953674316406e+00) (10, 1.44150056838989257812e+01) (11, 8.02243769168853759766e-01) (12, 1.71036553382873535156e+00) (13, -8.73232483863830566406e-01) (14, 2.19614672660827636719e+00) (15, 1.55885612964630126953e+00) (16, -2.53348565101623535156e+00) (17, 1.30240976810455322266e+00) (18, 1.38968765735626220703e+00) (19, -5.51649391651153564453e-01) (20, -1.25670567154884338379e-01) (21, 4.04257049560546875000e+01) (22, 8.77889347076416015625e+00) (23, 2.48465704917907714844e+00) (24, 1.87415075302124023438e+00) (25, 8.86543178558349609375e+00) (26, 2.35965156555175781250e+00) (27, 4.01534616947174072266e-01) (28, -1.38414897918701171875e+01) (29, -2.13999724388122558594e+00) (30, 9.82419872283935546875e+00) (31, -1.37663638591766357422e+00) (32, -2.33796787261962890625e+00) (33, -1.82189536094665527344e+00) (34, 2.30256795883178710938e+00) (35, 1.16608059406280517578e+00) (36, 1.80311429500579833984e+00) (37, 3.67127466201782226562e+00) (38, -4.25575017929077148438e+00) (39, 2.71653938293457031250e+00) (40, 1.16085278987884521484e+00) (41, -5.95361232757568359375e+00) (42, 4.18177932500839233398e-01) (43, 2.38075852394104003906e+00) (44, 2.67892646789550781250e+00) (45, -2.88657999038696289062e+00) (46, 2.02197575569152832031e+00) (47, 8.99394974112510681152e-02) (48, 9.54841804504394531250e+00) (49, -1.93013501167297363281e+00) (50, 1.18889510631561279297e+00) (51, 5.22912144660949707031e-01) (52, 1.48617768287658691406e+00) (53, -1.84558808803558349609e+00) (54, 5.11817312240600585938e+00) (55, 3.24009084701538085938e+00) (56, 1.17705762386322021484e+00) (57, 2.20327019691467285156e+00) (58, 6.88341736793518066406e-01) (59, 3.56876790523529052734e-01) (60, -1.60748708248138427734e+00) (61, -3.59434700012207031250e+00) (62, 9.05727958679199218750e+00) (63, 1.94373285770416259766e+00) (64, -1.83682429790496826172e+00) (65, -6.15417361259460449219e-01) (66, 1.18671822547912597656e+00) (67, 8.02020668983459472656e-01) (68, 7.77333021163940429688e+00) (69, -1.49339103698730468750e+00) (70, 2.57907843589782714844e+00) (71, 4.17542219161987304688e+00) (72, -5.01888215541839599609e-01) (73, 4.13767127990722656250e+01) (74, -2.79944777488708496094e-01) (75, 2.95415115356445312500e+00) (76, -1.30976045131683349609e+00) (77, -3.26872897148132324219e+00) (78, 2.74794012308120727539e-01) (0, 1.67616796493530273438e+00) (1, -3.05961340665817260742e-01) (2, -2.73901462554931640625e+00) (3, 1.71004521846771240234e+00) (4, 1.68295180797576904297e+00) (5, -9.76587593555450439453e-01) (6, -1.75646817684173583984e+00) (7, -6.11798882484436035156e-01) (8, 8.28908920288085937500e-01) (9, 8.16809058189392089844e-01) (10, 2.98488402366638183594e+00) (11, -3.56535673141479492188e+00) (12, -1.33014166355133056641e+00) (13, -4.73233789205551147461e-01) (14, 3.00744366645812988281e+00) (15, 3.92641603946685791016e-01) (16, -1.03508293628692626953e+00) (17, -5.94999730587005615234e-01) (18, 4.24839437007904052734e-01) (19, -7.74380445480346679688e-01) (20, -3.31834346055984497070e-01) (21, -8.04909706115722656250e-01) (22, 7.30739891529083251953e-01) (23, 2.37230968475341796875e+00) (24, 5.90316352844238281250e+01) (25, 2.90481638908386230469e+00) (26, 7.28989958763122558594e-01) (27, -1.72086465358734130859e+00) (28, 5.36427795886993408203e-01) (29, 3.70904982089996337891e-01) (30, -9.48957622051239013672e-01) (31, -3.72981977462768554688e+00) (32, -4.46990393102169036865e-02) (33, -2.55928754806518554688e-01) (34, 5.69066822528839111328e-01) (35, 6.46168088912963867188e+00) (36, 1.21516895294189453125e+00) (37, -8.15432548522949218750e-01) (38, 3.72194838523864746094e+00) (39, -2.25025033950805664062e+00) (40, 5.96420526504516601562e-01) (41, 1.45239067077636718750e+00) (42, 1.95200705528259277344e+00) (43, -2.74294853210449218750e-01) (44, 1.40526235103607177734e+00) (45, -3.43443608283996582031e+00) (46, -4.58228290081024169922e-01) (47, -3.71331453323364257812e+00) (48, 1.49103510379791259766e+00) (49, 4.37354266643524169922e-01) (50, 6.14528322219848632812e+00) (51, 7.08121299743652343750e+00) (52, -2.95996397733688354492e-01) (53, 3.65984964370727539062e+00) (54, -2.87148046493530273438e+00) (55, -7.23896741867065429688e-01) (56, -1.07721418142318725586e-01) (57, -2.13746912777423858643e-02) (58, -1.93496406078338623047e+00) (59, -1.77770406007766723633e-01) (60, 1.48717045783996582031e+00) (61, 6.99570274353027343750e+00) (62, -2.08033943176269531250e+00) (63, 2.49724775552749633789e-01) (64, 2.40643072128295898438e+00) (65, 1.42699325084686279297e+00) (66, 1.26104712486267089844e-01) (67, 3.48592042922973632812e+00) (68, 1.14988613128662109375e+00) (69, 1.32695400714874267578e+00) (70, -1.59238278865814208984e-02) (71, -5.86023271083831787109e-01) (72, -1.94766044616699218750e-01) (73, -1.79880845546722412109e+00) (74, -2.06760525703430175781e+00) (75, 5.66069507598876953125e+00) (76, 4.97581660747528076172e-01) (77, 5.78835153579711914062e+00) (78, 1.24671794474124908447e-01) (0, -2.08403870463371276855e-01) (1, 1.67352184653282165527e-01) (2, 3.98256927728652954102e-01) (3, 4.22272014617919921875e+00) (4, 4.78159046173095703125e+00) (5, -9.67425480484962463379e-02) (6, 5.56214928627014160156e-01) (7, 4.58184337615966796875e+00) (8, -1.57059833407402038574e-01) (9, -4.60449337959289550781e-01) (10, -3.83248299360275268555e-01) (11, -2.11065933108329772949e-01) (12, -4.09069210290908813477e-01) (13, 1.77439641952514648438e+00) (14, 4.67118054628372192383e-01) (15, 2.16008067131042480469e+00) (16, -8.18519783020019531250e+00) (17, -3.06140244007110595703e-01) (18, -1.51306200027465820312e+00) (19, 8.15662518143653869629e-02) (20, -1.09942324459552764893e-01) (21, -3.10878586024045944214e-02) (22, 2.91494995355606079102e-01) (23, -6.73308908939361572266e-01) (24, -1.02127361297607421875e+01) (25, -1.42616784572601318359e+00) (26, 3.06523871421813964844e+00) (27, 3.12836319208145141602e-01) (28, 1.01544237136840820312e+00) (29, 2.12499380111694335938e+00) (30, 8.74613583087921142578e-01) (31, 4.83541011810302734375e-01) (32, 2.64489197731018066406e+00) (33, -4.28044535219669342041e-02) (34, 5.07813155651092529297e-01) (35, -6.14195644855499267578e-01) (36, -7.70168542861938476562e-01) (37, 7.23967373371124267578e-01) (38, 1.54074048623442649841e-04) (39, -3.78900557756423950195e-01) (40, 5.56775629520416259766e-01) (41, 5.93210577964782714844e-01) (42, 1.63131153583526611328e+00) (43, 5.11134672164916992188e+00) (44, -5.09642839431762695312e-01) (45, -5.73393031954765319824e-02) (46, 1.83935075998306274414e-01) (47, -1.20866680145263671875e+00) (48, 6.01942956447601318359e-01) (49, 3.46154987812042236328e-01) (50, -3.12911152839660644531e+00) (51, -2.55019998550415039062e+00) (52, -9.80098173022270202637e-02) (53, 4.07221883535385131836e-01) (54, 1.66356301307678222656e+00) (55, 1.67578136920928955078e+00) (56, -2.01086074113845825195e-01) (57, -8.72810125350952148438e-01) (58, 1.13024556636810302734e+00) (59, -1.66297152638435363770e-01) (60, 5.41990578174591064453e-01) (61, -1.88866615295410156250e+00) (62, 4.49501156806945800781e-01) (63, -8.74705731868743896484e-01) (64, 8.78307819366455078125e-01) (65, 3.58218216896057128906e+00) (66, 4.63668912649154663086e-01) (67, 6.76873624324798583984e-01) (68, 2.17640355229377746582e-01) (69, 1.16821372509002685547e+00) (70, -7.12214171886444091797e-01) (71, 4.47269022464752197266e-01) (72, -2.13369578123092651367e-01) (73, 2.84855937957763671875e+00) (74, -1.14109730720520019531e+00) (75, -5.71523666381835937500e+00) (76, 4.82963502407073974609e-01) (77, 1.19541275501251220703e+00) (78, 8.04239585995674133301e-02) (0, 6.88292622566223144531e-01) (1, 1.67416346073150634766e+00) (2, 3.48839044570922851562e-01) (3, 7.46381998062133789062e-01) (4, 6.21271908283233642578e-01) (5, 9.19567167758941650391e-01) (6, 4.11132663488388061523e-01) (7, 8.36929857730865478516e-01) (8, 7.18078970909118652344e-01) (9, -1.01628935337066650391e+00) (10, 5.14095783233642578125e-01) (11, 7.72861480712890625000e-01) (12, -1.11767220497131347656e+00) (13, 1.17713999748229980469e+00) (14, 5.16692101955413818359e-01) (15, -5.02143085002899169922e-01) (16, -1.28466188907623291016e+00) (17, -1.91538482904434204102e-01) (18, -2.17718982696533203125e+00) (19, -2.65287309885025024414e-01) (20, 5.26382064819335937500e+00) (21, -9.51449051499366760254e-02) (22, 2.87808179855346679688e-01) (23, 1.45810060203075408936e-02) (24, -3.04698824882507324219e-01) (25, -7.50372052192687988281e-01) (26, 1.40514004230499267578e+00) (27, 3.45006585121154785156e-01) (28, 4.06543076038360595703e-01) (29, -9.09588858485221862793e-02) (30, 2.57704079151153564453e-01) (31, -3.54718279838562011719e+00) (32, 1.22693836688995361328e+00) (33, -6.78220018744468688965e-02) (34, 9.08012509346008300781e-01) (35, 3.84543251991271972656e+00) (36, 8.33333432674407958984e-02) (37, 7.39492475986480712891e-01) (38, -3.28824698925018310547e-01) (39, -2.14754194021224975586e-01) (40, 8.45275223255157470703e-02) (41, 1.16567589342594146729e-01) (42, -1.37917459011077880859e+00) (43, 3.04831552505493164062e+00) (44, -3.67842733860015869141e-01) (45, 6.02963685989379882812e-01) (46, 1.15237891674041748047e+00) (47, 1.85426950454711914062e-01) (48, 1.05665040016174316406e+00) (49, 3.08944821357727050781e-01) (50, 8.33541214466094970703e-01) (51, -5.20468473434448242188e-01) (52, 1.53222966194152832031e+00) (53, 8.85064721107482910156e-01) (54, 1.57735943794250488281e-01) (55, 1.12724289298057556152e-01) (56, 7.49779641628265380859e-01) (57, -1.56062409281730651855e-01) (58, -2.49556660652160644531e-01) (59, -6.36824131011962890625e+00) (60, 5.53991973400115966797e-01) (61, -1.25246357917785644531e+00) (62, 9.61336731910705566406e-01) (63, 5.51350116729736328125e-01) (64, -8.50886285305023193359e-01) (65, -5.56419432163238525391e-01) (66, 9.71566915512084960938e-01) (67, -7.92284011840820312500e-01) (68, -9.70531225204467773438e-01) (69, 3.13892066478729248047e-01) (70, 2.16678548604249954224e-02) (71, -7.14401304721832275391e-02) (72, 1.16478681564331054688e+00) (73, -5.05078256130218505859e-01) (74, -3.00006642937660217285e-02) (75, -8.16238760948181152344e-01) (76, 1.32412075996398925781e+00) (77, -1.63981348276138305664e-01) (78, 5.15111535787582397461e-03) (0, 4.39906686544418334961e-01) (1, -7.48321592807769775391e-01) (2, 1.74259334802627563477e-01) (3, 2.13292002677917480469e+00) (4, 2.24032878875732421875e+00) (5, -1.58463621139526367188e+00) (6, -2.41096639633178710938e+00) (7, -2.90430402755737304688e+00) (8, 5.74094772338867187500e-01) (9, -4.68827772140502929688e+00) (10, -2.09932103753089904785e-01) (11, -4.30129528045654296875e+00) (12, -3.05754661560058593750e-01) (13, 6.73278152942657470703e-01) (14, 1.59779226779937744141e+00) (15, 5.15441560745239257812e+00) (16, -5.89092016220092773438e+00) (17, -9.15090084075927734375e-01) (18, 1.35623764991760253906e+00) (19, 1.14745751023292541504e-01) (20, 2.56938147544860839844e+00) (21, 2.97096753120422363281e+00) (22, -2.99968552589416503906e+00) (23, 9.48986649513244628906e-01) (24, 1.62539315223693847656e+00) (25, 5.24551582336425781250e+00) (26, 1.31308043003082275391e+00) (27, 1.58336269855499267578e+00) (28, 6.03404819965362548828e-01) (29, -1.24426615238189697266e+00) (30, 5.41494905948638916016e-01) (31, -7.67105877399444580078e-01) (32, -1.09731137752532958984e+00) (33, -1.57092738151550292969e+00) (34, 5.30078935623168945312e+00) (35, 1.18524587154388427734e+00) (36, 3.33719182014465332031e+00) (37, 4.55069589614868164062e+00) (38, 4.04012870788574218750e+00) (39, -8.70171666145324707031e-01) (40, 3.64650917053222656250e+00) (41, -2.68556070327758789062e+00) (42, 4.28525495529174804688e+00) (43, 1.61285626888275146484e+00) (44, -4.45851039886474609375e+00) (45, 2.84210443496704101562e-02) (46, 5.37946414947509765625e+00) (47, -1.32209897041320800781e+00) (48, 8.98265913128852844238e-02) (49, -9.72213387489318847656e-01) (50, -1.46157884597778320312e+00) (51, -3.55402016639709472656e+00) (52, 1.39132845401763916016e+00) (53, -2.08240300416946411133e-01) (54, -1.11516140401363372803e-01) (55, -2.04120367765426635742e-01) (56, 1.12958002090454101562e+00) (57, 3.19497734308242797852e-01) (58, -9.35764014720916748047e-01) (59, -5.85485339164733886719e-01) (60, 3.64305925369262695312e+00) (61, 1.36951673030853271484e+00) (62, -4.21499633789062500000e+00) (63, 2.70246815681457519531e+00) (64, 2.32749915122985839844e+00) (65, 1.03561103343963623047e+00) (66, 2.83355307579040527344e+00) (67, -4.82715702056884765625e+00) (68, -1.96344530582427978516e+00) (69, -1.57078671455383300781e+00) (70, -2.09718179702758789062e+00) (71, -3.29363441467285156250e+00) (72, -5.78511059284210205078e-01) (73, 1.60246837139129638672e+00) (74, 1.02485923767089843750e+02) (75, 1.20046520233154296875e+00) (76, 3.30664873123168945312e+00) (77, 9.91124725341796875000e+00) (78, 2.97710686922073364258e-01) (0, -8.96730720996856689453e-01) (1, 2.28082561492919921875e+00) (2, 2.67607066780328750610e-02) (3, -6.51170969009399414062e-01) (4, 4.91098463535308837891e-01) (5, 2.52260684967041015625e+00) (6, -2.77789688110351562500e+00) (7, 1.94829380512237548828e+00) (8, -1.66003298759460449219e+00) (9, 8.69839572906494140625e+00) (10, -1.47364103794097900391e+00) (11, 1.64633303880691528320e-01) (12, 3.37255150079727172852e-01) (13, -5.87003290653228759766e-01) (14, -1.86497867107391357422e+00) (15, 5.08362722396850585938e+00) (16, 5.47369308769702911377e-02) (17, 2.33451499938964843750e+01) (18, 1.02284944057464599609e+00) (19, 3.87633860111236572266e-01) (20, -7.10042655467987060547e-01) (21, -4.03410017490386962891e-01) (22, -5.93796670436859130859e-01) (23, 2.86162042617797851562e+00) (24, 1.85215806961059570312e+00) (25, -4.47448223829269409180e-01) (26, 3.21988940238952636719e-01) (27, -6.27583360671997070312e+00) (28, 2.16075491905212402344e+00) (29, -4.70857024192810058594e-01) (30, 2.54096388816833496094e+00) (31, 1.49363338947296142578e+00) (32, 6.53834462165832519531e-01) (33, 3.41006350517272949219e+00) (34, 4.90698318481445312500e+01) (35, -1.20451478958129882812e+01) (36, -2.18632531166076660156e+00) (37, -1.42218875885009765625e+00) (38, -4.99866437911987304688e+00) (39, -1.60029435157775878906e+00) (40, 3.18266510963439941406e+00) (41, 4.29175853729248046875e+00) (42, 1.87775135040283203125e+01) (43, -1.46671664714813232422e+00) (44, -1.28218030929565429688e+00) (45, 8.49354743957519531250e+00) (46, 8.35171937942504882812e-01) (47, -9.31218445301055908203e-01) (48, 2.82770723104476928711e-01) (49, 7.92986631393432617188e-01) (50, -5.03727769851684570312e+00) (51, -2.27819967269897460938e+00) (52, 2.10296916961669921875e+00) (53, -1.13147485256195068359e+00) (54, 1.07822170257568359375e+01) (55, -4.46574640274047851562e+00) (56, -8.30642104148864746094e-01) (57, 5.17267048358917236328e-01) (58, -3.27359229326248168945e-01) (59, 1.01970272064208984375e+01) (60, -1.68959701061248779297e+00) (61, 2.97774658203125000000e+01) (62, -1.86263012886047363281e+00) (63, -7.33500003814697265625e-01) (64, -3.03175497055053710938e+00) (65, 2.60003638267517089844e+00) (66, 2.78036475181579589844e+00) (67, 1.29012238979339599609e+00) (68, 4.81196546554565429688e+00) (69, -1.36260919570922851562e+01) (70, 8.58568429946899414062e-01) (71, -6.41798877716064453125e+00) (72, 3.97117733955383300781e+00) (73, 7.48267030715942382812e+00) (74, 1.45820128917694091797e+00) (75, 8.94206428527832031250e+00) (76, 7.21189752221107482910e-02) (77, 1.23233432769775390625e+01) (78, 6.20650537312030792236e-02) (0, 2.63265490531921386719e-01) (1, -3.97615849971771240234e-01) (2, 7.34120309352874755859e-01) (3, 1.42680382728576660156e+00) (4, 2.87642836570739746094e+00) (5, -1.09549736976623535156e+00) (6, 3.31912487745285034180e-01) (7, -1.53454631567001342773e-01) (8, 4.62212467193603515625e+00) (9, -2.29587882757186889648e-01) (10, -4.21877413988113403320e-01) (11, -2.03438699245452880859e-01) (12, -7.12297022342681884766e-01) (13, 2.50968050956726074219e+00) (14, 5.56356966495513916016e-01) (15, 6.33341193199157714844e-01) (16, -8.25296461582183837891e-01) (17, 1.14359951019287109375e+00) (18, 8.81699994206428527832e-02) (19, -5.51783180236816406250e+00) (20, 3.21721702814102172852e-01) (21, -8.28810453414916992188e-01) (22, 9.17694854736328125000e+00) (23, -3.31533479690551757812e+00) (24, -1.19625818729400634766e+00) (25, -1.99922001361846923828e+00) (26, 3.27716350555419921875e-01) (27, 4.42230194807052612305e-01) (28, -1.61666595935821533203e+00) (29, 1.07370758056640625000e+00) (30, 7.52004027366638183594e-01) (31, -4.11886215209960937500e+00) (32, 2.14306414127349853516e-01) (33, -1.14130580425262451172e+00) (34, 6.33549571037292480469e-01) (35, -1.41953364014625549316e-01) (36, 1.56924203038215637207e-01) (37, 2.56315898895263671875e+00) (38, 5.86778938770294189453e-01) (39, -4.89861667156219482422e-01) (40, 1.48757374286651611328e+00) (41, 1.73953071236610412598e-01) (42, 7.62650132179260253906e-01) (43, -2.11403474211692810059e-01) (44, -2.53773152828216552734e-01) (45, -3.82181334495544433594e+00) (46, 5.45586764812469482422e-01) (47, -2.08821249008178710938e+00) (48, -3.06750774383544921875e-01) (49, 5.70208787918090820312e-01) (50, 5.05534029006958007812e+00) (51, -1.55363738536834716797e+00) (52, 1.96346327662467956543e-01) (53, -8.44521522521972656250e-01) (54, 7.54308640956878662109e-01) (55, -1.49579262733459472656e+00) (56, 1.24620878696441650391e+00) (57, 1.20094530284404754639e-01) (58, 5.45896673202514648438e+00) (59, 4.86494034528732299805e-01) (60, 7.90132701396942138672e-01) (61, 9.50733304023742675781e-01) (62, -6.76670134067535400391e-01) (63, 4.31791925802826881409e-03) (64, -1.03737699985504150391e+00) (65, 2.63682937622070312500e+00) (66, -5.99973320960998535156e-01) (67, -5.80330371856689453125e-01) (68, -1.15842923521995544434e-01) (69, -1.66635781526565551758e-01) (70, 4.04490917921066284180e-01) (71, 2.26991981267929077148e-01) (72, 3.40385913848876953125e-01) (73, -9.77643251419067382812e-01) (74, -2.78905600309371948242e-01) (75, 8.13633270263671875000e+01) (76, 6.26555740833282470703e-01) (77, 1.46080875396728515625e+00) (78, 1.03550560772418975830e-01) (0, 4.37976551055908203125e+00) (1, -4.66526508331298828125e+00) (2, -1.14057883620262145996e-01) (3, -1.83641743659973144531e+00) (4, 1.24692499637603759766e+00) (5, -2.99322342872619628906e+00) (6, 1.42552936077117919922e+00) (7, -3.57753300666809082031e+00) (8, 4.28624659776687622070e-01) (9, 3.67593955993652343750e+00) (10, 1.84114670753479003906e+00) (11, -2.07726240158081054688e+00) (12, 2.88539242744445800781e+00) (13, -3.97295331954956054688e+00) (14, 1.74557924270629882812e+00) (15, 1.44194769859313964844e+00) (16, 4.33023834228515625000e+00) (17, -1.43034305572509765625e+01) (18, -1.65549337863922119141e+00) (19, -1.89859938621520996094e+00) (20, 2.67940610647201538086e-01) (21, -5.74177026748657226562e+00) (22, 1.17358326911926269531e+00) (23, 5.49973440170288085938e+00) (24, 5.90866928100585937500e+01) (25, 3.51145911216735839844e+00) (26, -1.73530375957489013672e+00) (27, 8.61560165882110595703e-01) (28, 4.10733842849731445312e+00) (29, 2.27152729034423828125e+00) (30, -7.68537104129791259766e-01) (31, -1.61696290969848632812e+00) (32, 5.87638616561889648438e-01) (33, 1.96026630401611328125e+01) (34, 4.65146899223327636719e-01) (35, 1.05944223403930664062e+01) (36, 5.18493413925170898438e+00) (37, -1.11939592361450195312e+01) (38, 3.81398010253906250000e+00) (39, -4.95312213897705078125e-01) (40, -1.48050677776336669922e+00) (41, 5.81201171875000000000e+00) (42, -3.18859481811523437500e+00) (43, -2.98159446716308593750e+01) (44, -9.50079321861267089844e-01) (45, 3.06196284294128417969e+00) (46, -6.14179134368896484375e-01) (47, 3.49344139099121093750e+01) (48, -3.07444715499877929688e+00) (49, -2.64664602279663085938e+00) (50, 9.45236980915069580078e-01) (51, -4.27678632736206054688e+00) (52, 6.57026529312133789062e+00) (53, 1.21592116355895996094e+00) (54, 1.16896772384643554688e+00) (55, 1.96413493156433105469e+00) (56, 3.04615807533264160156e+00) (57, -7.87425279617309570312e-01) (58, 1.53205490112304687500e+00) (59, 3.45232467651367187500e+01) (60, 3.50680899620056152344e+00) (61, 1.00300920009613037109e+00) (62, 2.47697710990905761719e+00) (63, -1.65151143074035644531e+00) (64, -5.99908530712127685547e-01) (65, -1.96917295455932617188e+00) (66, 8.85918426513671875000e+00) (67, -9.69198584556579589844e-01) (68, -1.05611765384674072266e+00) (69, -3.62993907928466796875e+00) (70, -1.90361106395721435547e+00) (71, -6.73973321914672851562e-01) (72, 1.80863499641418457031e+00) (73, -2.25449633598327636719e+00) (74, 2.25808620452880859375e+00) (75, -7.89690017700195312500e-01) (76, 4.46044921875000000000e+00) (77, -2.89833784103393554688e+00) (78, 1.16065301001071929932e-01) (0, 3.35113692283630371094e+00) (1, -2.50675797462463378906e+00) (2, 1.63792502880096435547e+00) (3, 3.98223213851451873779e-02) (4, 1.26486349105834960938e+00) (5, -2.31582418084144592285e-01) (6, -2.23470163345336914062e+00) (7, -1.10025823116302490234e+00) (8, 5.47266054153442382812e+00) (9, -4.64643001556396484375e+00) (10, 3.98344874382019042969e-01) (11, -1.04934060573577880859e+00) (12, -2.05051112174987792969e+00) (13, 2.60756850242614746094e-01) (14, 4.18331050872802734375e+00) (15, -7.45920479297637939453e-01) (16, -5.34573125839233398438e+00) (17, -1.33703100681304931641e+00) (18, 4.93910908699035644531e-01) (19, -6.50174379348754882812e-01) (20, 3.47050499916076660156e+00) (21, -4.51689338684082031250e+00) (22, -1.07740867137908935547e+00) (23, 3.98950785398483276367e-01) (24, 5.96456527709960937500e+00) (25, -2.06254148483276367188e+00) (26, 6.57585811614990234375e+00) (27, -2.28563332557678222656e+00) (28, -5.32472670078277587891e-01) (29, -2.24145817756652832031e+00) (30, 2.04088001251220703125e+01) (31, 3.74753975868225097656e+00) (32, -6.76312804222106933594e-01) (33, 2.85834350585937500000e+01) (34, 6.32612609863281250000e+00) (35, 1.13718020915985107422e+00) (36, 4.26437228918075561523e-01) (37, -3.14344382286071777344e+00) (38, 6.36588037014007568359e-01) (39, -1.59823215007781982422e+00) (40, 4.97106790542602539062e+00) (41, -1.74329447746276855469e+00) (42, -1.08150720596313476562e+00) (43, -4.42761719226837158203e-01) (44, -1.23645454645156860352e-01) (45, 3.74975651502609252930e-01) (46, 9.70360946655273437500e+00) (47, -5.46249151229858398438e-01) (48, 2.07006573677062988281e+00) (49, 2.68097305297851562500e+00) (50, 7.91007661819458007812e+00) (51, -4.67613554000854492188e+00) (52, 1.00613272190093994141e+00) (53, 1.58485770225524902344e-02) (54, -9.84461009502410888672e-01) (55, -4.51605081558227539062e-01) (56, 2.03620529174804687500e+00) (57, -4.09382295608520507812e+00) (58, 6.16539895534515380859e-01) (59, 2.55205464363098144531e+00) (60, 1.41844570636749267578e+00) (61, 3.08370566368103027344e+00) (62, 9.62189063429832458496e-02) (63, 1.35751143097877502441e-01) (64, -1.84262311458587646484e+00) (65, -1.85938560962677001953e+00) (66, 7.21657752990722656250e-01) (67, -8.18987011909484863281e-01) (68, -9.17142391204833984375e-01) (69, -1.68657457828521728516e+00) (70, 9.78869736194610595703e-01) (71, -1.04170417785644531250e+00) (72, 9.48728859424591064453e-01) (73, 2.56168276071548461914e-01) (74, 1.62874972820281982422e+00) (75, -4.71367120742797851562e-01) (76, 6.89251613616943359375e+00) (77, 2.12114667892456054688e+00) (78, 4.67104166746139526367e-02) (0, 1.15715518593788146973e-01) (1, -1.54603374004364013672e+00) (2, 5.83862638473510742188e+00) (3, -6.60430335998535156250e+00) (4, -2.22146844863891601562e+00) (5, 4.21989822387695312500e+00) (6, 6.75792217254638671875e-01) (7, 1.68245220184326171875e+00) (8, 8.96022915840148925781e-01) (9, 6.77037525177001953125e+00) (10, 1.40308809280395507812e+00) (11, -1.45451235771179199219e+00) (12, -9.15312170982360839844e-01) (13, -3.34023189544677734375e+00) (14, 1.15394556522369384766e+00) (15, 3.50184726715087890625e+00) (16, -3.27179193496704101562e+00) (17, -6.99235320091247558594e-01) (18, 2.33362269401550292969e+00) (19, -2.08234739303588867188e+00) (20, 1.85584723949432373047e+00) (21, 8.57347726821899414062e-01) (22, 4.60881471633911132812e-01) (23, 1.74879093170166015625e+01) (24, 1.46058511734008789062e+00) (25, 2.52016091346740722656e+00) (26, 9.33742523193359375000e+00) (27, -2.19443035125732421875e+00) (28, 3.37567687034606933594e+00) (29, -2.42639970779418945312e+00) (30, 1.63410079479217529297e+00) (31, 1.15337438583374023438e+01) (32, 7.23654985427856445312e-01) (33, 5.82332897186279296875e+00) (34, -4.43409711122512817383e-01) (35, 1.09625840187072753906e+00) (36, 5.15807628631591796875e+00) (37, 1.02295422554016113281e+00) (38, -5.69476985931396484375e+00) (39, -4.77817440032958984375e+00) (40, 6.55420482158660888672e-01) (41, 9.75757408142089843750e+00) (42, 8.48726081848144531250e+00) (43, -7.66906833648681640625e+00) (44, 1.29195258021354675293e-01) (45, 1.11212892532348632812e+01) (46, 1.73010373115539550781e+00) (47, -1.33236563205718994141e+00) (48, -6.16723299026489257812e-01) (49, 6.80464148521423339844e-01) (50, 1.86927244067192077637e-02) (51, -1.46562063694000244141e+00) (52, 3.35357367992401123047e-01) (53, 2.21636271476745605469e+00) (54, 1.98476150631904602051e-01) (55, -2.27589249610900878906e+00) (56, 3.84912252426147460938e-01) (57, 1.49639320373535156250e+00) (58, -3.99583482742309570312e+00) (59, 1.55824680328369140625e+01) (60, 1.72810840606689453125e+00) (61, -3.47209274768829345703e-01) (62, 1.66484415531158447266e+00) (63, 3.22883725166320800781e+00) (64, 2.01938462257385253906e+00) (65, -1.57198011875152587891e-01) (66, -2.98767775297164916992e-01) (67, 6.92774057388305664062e-01) (68, 1.61136388778686523438e+00) (69, -5.18609225749969482422e-01) (70, 5.65592646598815917969e-01) (71, -1.13508391380310058594e+00) (72, 1.84160912036895751953e+00) (73, 1.49932488799095153809e-01) (74, 1.05318975448608398438e+00) (75, -5.62452554702758789062e-01) (76, 6.67975616455078125000e+00) (77, 3.57042789459228515625e-01) (78, 2.63402700424194335938e-01) (0, -1.38904154300689697266e+00) (1, 9.50176179409027099609e-01) (2, 1.00364065170288085938e+00) (3, 5.48555421829223632812e+00) (4, -4.45406660437583923340e-02) (5, 2.12273311614990234375e+00) (6, 2.77684402465820312500e+00) (7, -7.55838811397552490234e-01) (8, -3.82249760627746582031e+00) (9, -7.05890703201293945312e+00) (10, -1.72026169300079345703e+00) (11, 2.10577464103698730469e+00) (12, -1.33448815345764160156e+00) (13, 3.68758559226989746094e+00) (14, 2.47564926743507385254e-01) (15, 1.93605887889862060547e+00) (16, 2.51300888061523437500e+01) (17, 2.95234531164169311523e-01) (18, -1.12283825874328613281e+00) (19, -2.72735327482223510742e-01) (20, -2.64762401580810546875e+00) (21, -1.21368348598480224609e+00) (22, 5.27380418777465820312e+00) (23, 5.06289601325988769531e-02) (24, 5.91097869873046875000e+01) (25, 1.31646261215209960938e+01) (26, -1.53793036937713623047e+00) (27, 1.24699711799621582031e+00) (28, -4.90126466751098632812e+00) (29, -1.23266506195068359375e+01) (30, -1.65881603956222534180e-01) (31, 2.90497989654541015625e+01) (32, -8.59303951263427734375e+00) (33, -2.85924983024597167969e+00) (34, 1.72365403175354003906e+00) (35, 2.61197757720947265625e+00) (36, -5.10187005996704101562e+00) (37, -3.72116923332214355469e+00) (38, -7.34264627099037170410e-02) (39, 7.36986160278320312500e-01) (40, 3.54276347160339355469e+00) (41, -1.65205931663513183594e+00) (42, -6.60159826278686523438e+00) (43, -2.82846957445144653320e-01) (44, 5.76784789562225341797e-01) (45, -9.99732136726379394531e-01) (46, 1.41879692077636718750e+01) (47, 1.28950767517089843750e+01) (48, 3.78458857536315917969e-01) (49, 6.52378141880035400391e-01) (50, 1.40230143070220947266e+00) (51, 7.50023126602172851562e+00) (52, 9.17981624603271484375e-01) (53, -6.12723398208618164062e+00) (54, -4.75746250152587890625e+00) (55, -2.21176648139953613281e+00) (56, 1.52585697174072265625e+01) (57, 5.95778131484985351562e+00) (58, 5.39149188995361328125e+00) (59, 2.71743941307067871094e+00) (60, -1.07674479484558105469e+00) (61, 1.34349942207336425781e-01) (62, 4.02299118041992187500e+00) (63, -1.20032131671905517578e+00) (64, 1.07676780223846435547e+00) (65, -9.32491958141326904297e-01) (66, 1.87494640350341796875e+01) (67, 2.44765117764472961426e-01) (68, 7.73636436462402343750e+00) (69, -1.53800189495086669922e+00) (70, -2.46866416931152343750e+00) (71, -8.71167755126953125000e+00) (72, 4.04336959123611450195e-01) (73, 8.11891174316406250000e+00) (74, -1.23329174518585205078e+00) (75, 6.83051013946533203125e+00) (76, -6.00223183631896972656e-01) (77, 1.86941871643066406250e+01) (78, -9.75605752319097518921e-03) (0, 2.91906386613845825195e-01) (1, 1.20336937904357910156e+00) (2, -2.80524945259094238281e+00) (3, 6.00625157356262207031e-01) (4, 1.13889539241790771484e+00) (5, 1.33608925342559814453e+00) (6, -7.51741111278533935547e-01) (7, -1.28656566143035888672e+00) (8, 1.30335986614227294922e+00) (9, 6.83970451354980468750e+00) (10, -1.72843146324157714844e+00) (11, 6.43418014049530029297e-01) (12, 4.48003578186035156250e+00) (13, -1.73009335994720458984e+00) (14, 5.20205211639404296875e+00) (15, -7.93786942958831787109e-01) (16, -2.85355094820261001587e-02) (17, 4.52558326721191406250e+00) (18, -7.81756103038787841797e-01) (19, -1.36447712779045104980e-01) (20, 1.09485018253326416016e+00) (21, 1.22759544849395751953e+00) (22, -2.13120913505554199219e+00) (23, 5.89499592781066894531e-01) (24, 2.38907122611999511719e+00) (25, 8.47526371479034423828e-01) (26, 5.64997553825378417969e-01) (27, -2.58419215679168701172e-01) (28, 7.86427408456802368164e-02) (29, 2.16224718093872070312e+00) (30, 4.92072153091430664062e+00) (31, -1.00700891017913818359e+00) (32, -1.82084107398986816406e+00) (33, 7.25494813919067382812e+00) (34, 1.52221822738647460938e+01) (35, -1.65170475840568542480e-01) (36, 3.82580566406250000000e+00) (37, -6.22349679470062255859e-01) (38, -3.51813101768493652344e+00) (39, 1.60497307777404785156e+00) (40, -1.19341218471527099609e+00) (41, -1.04379940032958984375e+00) (42, -1.22518510818481445312e+01) (43, -1.09628927707672119141e+00) (44, 3.98260027170181274414e-01) (45, 3.43313598632812500000e+00) (46, 1.94220149517059326172e+00) (47, -4.52267408370971679688e-01) (48, 1.68231689929962158203e+00) (49, 5.24997413158416748047e-01) (50, 1.01519527435302734375e+01) (51, 2.21285972595214843750e+01) (52, -2.91269809007644653320e-01) (53, 1.87463736534118652344e+00) (54, -1.39892622828483581543e-01) (55, -2.39576244354248046875e+00) (56, 3.87500263750553131104e-02) (57, 1.04826641082763671875e+00) (58, 1.67574062943458557129e-02) (59, 2.68230056762695312500e+00) (60, 2.64773416519165039062e+00) (61, -4.28798049688339233398e-01) (62, -1.43986427783966064453e+00) (63, -5.54979979991912841797e-01) (64, 3.12451362609863281250e+00) (65, 1.97323906421661376953e+00) (66, 2.50880718231201171875e+00) (67, 4.33559703826904296875e+00) (68, 5.52549213171005249023e-02) (69, -7.44438230991363525391e-01) (70, -2.55629450082778930664e-01) (71, -9.76440072059631347656e-01) (72, 1.94720497131347656250e+01) (73, -1.36511099338531494141e+00) (74, 5.91697931289672851562e-01) (75, 7.63946831226348876953e-01) (76, 1.56011366844177246094e+00) (77, -2.67328500747680664062e+00) (78, 2.25080281496047973633e-01) (0, 4.47480902075767517090e-02) (1, -4.89248543977737426758e-01) (2, 2.66014099121093750000e+00) (3, 5.97862184047698974609e-01) (4, 5.22359967231750488281e-01) (5, 3.06671810150146484375e+00) (6, 5.85416674613952636719e-01) (7, -8.86213541030883789062e-01) (8, 8.84211003780364990234e-01) (9, -1.03278017044067382812e+00) (10, 1.33538305759429931641e+00) (11, -9.02530670166015625000e-01) (12, -2.93266439437866210938e+00) (13, -2.96365261077880859375e+00) (14, 3.53381133079528808594e+00) (15, 1.95687305927276611328e+00) (16, 2.03772097826004028320e-01) (17, -3.00611162185668945312e+00) (18, -5.23760414123535156250e+00) (19, -1.48048651218414306641e+00) (20, 4.37239980697631835938e+00) (21, 2.39169493317604064941e-01) (22, 3.12566447257995605469e+00) (23, -1.02880835533142089844e+00) (24, 3.25241446495056152344e+00) (25, 7.53488731384277343750e+00) (26, -1.32821047306060791016e+00) (27, 2.25677418708801269531e+00) (28, -1.14698529243469238281e+00) (29, 2.40387821197509765625e+00) (30, -4.77747470140457153320e-02) (31, -8.44633162021636962891e-01) (32, -1.21866703033447265625e+00) (33, 5.16731548309326171875e+00) (34, 2.28271171450614929199e-01) (35, 2.06948733329772949219e+00) (36, 2.65710592269897460938e+00) (37, -1.40910053253173828125e+01) (38, 2.17208147048950195312e+00) (39, -3.03617358207702636719e+00) (40, 4.71271181106567382812e+00) (41, -1.78875362873077392578e+00) (42, 5.66693186759948730469e-01) (43, -2.36757040023803710938e+00) (44, -1.56108176708221435547e+00) (45, 3.19449931383132934570e-01) (46, 2.09801125526428222656e+00) (47, 1.49074249267578125000e+01) (48, 3.04105401039123535156e+00) (49, 6.94486761093139648438e+00) (50, 2.68450093269348144531e+00) (51, 9.55434799194335937500e+00) (52, 5.90579366683959960938e+00) (53, 5.05129861831665039062e+00) (54, -6.54675424098968505859e-01) (55, 5.52927315235137939453e-01) (56, 5.60835742950439453125e+00) (57, -2.04535484313964843750e+00) (58, -5.73433041572570800781e-01) (59, 1.02447533607482910156e+00) (60, 9.27999401092529296875e+00) (61, 1.65677680969238281250e+01) (62, -1.58316886425018310547e+00) (63, -3.03783869743347167969e+00) (64, -1.42738595604896545410e-01) (65, -4.98167052865028381348e-02) (66, 6.35961771011352539062e-01) (67, 8.70341718196868896484e-01) (68, -1.56997466087341308594e+00) (69, -9.29990530014038085938e-01) (70, -1.43032181262969970703e+00) (71, -2.51944971084594726562e+00) (72, 1.88719880580902099609e+00) (73, 2.07933115959167480469e+00) (74, 1.12969236373901367188e+01) (75, 1.79913246631622314453e+00) (76, 3.98286867141723632812e+00) (77, 1.09299385547637939453e+00) (78, 7.84635022282600402832e-02) (0, 9.33503532409667968750e+00) (1, 1.53730154037475585938e+00) (2, 9.50384974479675292969e-01) (3, -1.81221556663513183594e+00) (4, 2.46099591255187988281e+00) (5, 1.30884617567062377930e-01) (6, -1.72920405864715576172e+00) (7, -1.93279758095741271973e-02) (8, 2.91131305694580078125e+00) (9, 1.04408752918243408203e+00) (10, -1.01709198951721191406e+00) (11, -2.67434775829315185547e-01) (12, 4.53633666038513183594e-01) (13, -4.28355634212493896484e-01) (14, 1.44493942260742187500e+01) (15, 1.29708003997802734375e+00) (16, 7.26517140865325927734e-01) (17, 2.43118554353713989258e-01) (18, 6.27026557922363281250e-01) (19, -1.01269757747650146484e+00) (20, 1.52335786819458007812e+00) (21, -3.37725806236267089844e+00) (22, -5.08736181259155273438e+00) (23, 8.68282496929168701172e-01) (24, 5.56884706020355224609e-01) (25, -1.50378715991973876953e+00) (26, 6.99450492858886718750e+00) (27, 6.34108960628509521484e-01) (28, 4.25042450428009033203e-01) (29, -9.41939890384674072266e-01) (30, 3.16062712669372558594e+00) (31, 8.23074758052825927734e-01) (32, -1.47241258621215820312e+00) (33, 1.31320114135742187500e+01) (34, 1.56926860809326171875e+01) (35, 1.62016606330871582031e+00) (36, -2.62737631797790527344e-01) (37, -1.88979014754295349121e-01) (38, 1.28493443131446838379e-01) (39, -2.62021088600158691406e+00) (40, 4.67824077606201171875e+00) (41, 2.97515678405761718750e+00) (42, -1.22210228443145751953e+00) (43, 6.78905248641967773438e-01) (44, -1.01026594638824462891e+00) (45, -2.90144473314285278320e-01) (46, 9.91192460060119628906e-01) (47, 1.48391425609588623047e-01) (48, -3.23749542236328125000e+00) (49, -3.02608895301818847656e+00) (50, -3.36164146661758422852e-01) (51, 8.84510993957519531250e-01) (52, 2.71373420953750610352e-01) (53, -5.00189900398254394531e-01) (54, -6.25377476215362548828e-01) (55, -3.60973417758941650391e-01) (56, -8.08710455894470214844e-01) (57, -8.36832702159881591797e-01) (58, 7.68855810165405273438e-02) (59, 5.15225124359130859375e+00) (60, 4.88108575344085693359e-01) (61, 1.41747283935546875000e+00) (62, 3.69549661874771118164e-01) (63, 6.64386034011840820312e-01) (64, 2.43579015135765075684e-01) (65, -2.58950293064117431641e-01) (66, 1.64538455009460449219e+00) (67, 1.56017720699310302734e+00) (68, -3.08970570564270019531e+00) (69, 1.23378193378448486328e+00) (70, -1.07451486587524414062e+00) (71, 5.64835131168365478516e-01) (72, -3.06879617273807525635e-02) (73, -2.54043173789978027344e+00) (74, 1.48345603942871093750e+01) (75, 8.69734227657318115234e-01) (76, 4.52816426753997802734e-01) (77, -1.22175586223602294922e+00) (78, 2.43947371840476989746e-01) (0, 4.14755046367645263672e-01) (1, -2.04143047332763671875e+00) (2, 1.20843782424926757812e+01) (3, 2.94377058744430541992e-01) (4, -6.86762988567352294922e-01) (5, -7.03052818775177001953e-01) (6, -7.92322158813476562500e-01) (7, 2.23284173011779785156e+00) (8, -2.56439304351806640625e+00) (9, 2.08726906776428222656e+00) (10, 1.79907691478729248047e+00) (11, 1.37159430980682373047e+00) (12, 1.64462053775787353516e+00) (13, -2.07159090042114257812e+00) (14, 6.81534528732299804688e-01) (15, 1.57038497924804687500e+00) (16, 7.66916465759277343750e+00) (17, 1.32950437068939208984e+00) (18, 2.09914922714233398438e+00) (19, 2.20382809638977050781e+00) (20, -2.46257591247558593750e+00) (21, -9.48900222778320312500e-01) (22, -9.96177077293395996094e-01) (23, -6.04525566101074218750e-01) (24, 4.26245659589767456055e-01) (25, -4.17662239074707031250e+00) (26, 4.93938636779785156250e+01) (27, -9.54228401184082031250e-01) (28, 4.71211522817611694336e-01) (29, 5.65025389194488525391e-01) (30, 1.59689414501190185547e+00) (31, -2.56798934936523437500e+00) (32, 3.07600259780883789062e-01) (33, 1.17604913711547851562e+01) (34, 5.78927755355834960938e+00) (35, 9.14558887481689453125e-01) (36, 3.68387675285339355469e+00) (37, -3.45696449279785156250e-01) (38, -8.62178266048431396484e-01) (39, -1.06149458885192871094e+00) (40, 1.47582397460937500000e+02) (41, -2.85142517089843750000e+00) (42, -7.21457898616790771484e-01) (43, -1.59935936331748962402e-01) (44, -1.39713972806930541992e-01) (45, -1.97402524948120117188e+00) (46, 2.12672897338867187500e+02) (47, 3.48301172256469726562e-01) (48, -9.05528903007507324219e-01) (49, -1.46793770790100097656e+00) (50, 1.65549106597900390625e+01) (51, 5.28906702995300292969e-01) (52, -3.34665679931640625000e+00) (53, -6.38851076364517211914e-02) (54, 2.25892949104309082031e+00) (55, 2.80188488960266113281e+00) (56, -2.43974876403808593750e+00) (57, 9.04963612556457519531e-02) (58, 1.56382036209106445312e+00) (59, -1.88061428070068359375e+00) (60, -8.04593503475189208984e-01) (61, 1.35861384868621826172e+00) (62, 3.53762626647949218750e-01) (63, 2.46856525540351867676e-01) (64, 2.96614503860473632812e+00) (65, 9.29858398437500000000e+00) (66, -3.07410359382629394531e+00) (67, 2.14953112602233886719e+00) (68, -5.63460016250610351562e+00) (69, 1.15934908390045166016e+00) (70, 5.09835898876190185547e-01) (71, 7.00866997241973876953e-01) (72, -1.84487330913543701172e+00) (73, 1.04322373867034912109e+00) (74, 4.54566812515258789062e+00) (75, 8.77311992645263671875e+00) (76, -3.83748173713684082031e-01) (77, 7.03320086002349853516e-01) (78, 9.67163443565368652344e-02) (0, 1.12495088577270507812e+00) (1, -2.36283406615257263184e-01) (2, -2.17008256912231445312e+00) (3, -3.35769712924957275391e-01) (4, 1.03707039356231689453e+00) (5, 1.99827402830123901367e-01) (6, -1.56798338890075683594e+00) (7, 4.54314388334751129150e-02) (8, 3.75512927770614624023e-01) (9, -1.64830312132835388184e-01) (10, 1.48815914988517761230e-01) (11, -3.38183522224426269531e-01) (12, 3.08425575494766235352e-01) (13, 5.22626638412475585938e-01) (14, 8.84665369987487792969e-01) (15, -7.23438858985900878906e-01) (16, -1.18846023082733154297e+00) (17, 6.40201985836029052734e-01) (18, 2.14199274778366088867e-02) (19, 5.44263243675231933594e-01) (20, 1.12456813454627990723e-01) (21, 3.13510000705718994141e-01) (22, 5.61525106430053710938e-01) (23, -1.07635334134101867676e-01) (24, -4.19201761484146118164e-01) (25, -5.54018199443817138672e-01) (26, 2.39293003082275390625e+00) (27, 4.97363418340682983398e-01) (28, -1.19637824594974517822e-01) (29, 1.26033678650856018066e-01) (30, 7.21819341182708740234e-01) (31, -3.17389577627182006836e-01) (32, -2.31938973069190979004e-01) (33, -1.64761155843734741211e-01) (34, 1.39059352874755859375e+00) (35, -3.99257987737655639648e-01) (36, -1.19202375411987304688e+00) (37, -8.20668339729309082031e-02) (38, 1.52461364865303039551e-01) (39, 6.20790183544158935547e-01) (40, 9.96276021003723144531e-01) (41, -1.66374593973159790039e-01) (42, -1.16800689697265625000e+00) (43, 2.37352520227432250977e-01) (44, -1.03030979633331298828e-01) (45, -5.67937046289443969727e-02) (46, 5.06328046321868896484e-01) (47, -4.64319705963134765625e-01) (48, -1.81158661842346191406e-01) (49, 2.33777791261672973633e-01) (50, -6.55275136232376098633e-02) (51, -3.84578593075275421143e-02) (52, 6.22656226158142089844e-01) (53, 2.32237800955772399902e-01) (54, 3.89814019203186035156e-01) (55, 9.15896371006965637207e-02) (56, 1.47960436344146728516e+00) (57, 3.72986681759357452393e-02) (58, 2.38969624042510986328e-02) (59, -9.54119682312011718750e-01) (60, 8.43561947345733642578e-01) (61, -4.95030343532562255859e-01) (62, 2.73396849632263183594e-01) (63, 5.81484101712703704834e-02) (64, -3.61310184001922607422e-01) (65, 6.43799960613250732422e-01) (66, 2.31025606393814086914e-01) (67, -3.00653558224439620972e-02) (68, -4.94906902313232421875e-01) (69, -6.49146363139152526855e-02) (70, 4.96924191713333129883e-01) (71, -2.34325036406517028809e-01) (72, 6.21837019920349121094e-01) (73, -4.68316450715065002441e-02) (74, -3.93434971570968627930e-01) (75, 9.49145704507827758789e-02) (76, 1.07466578483581542969e-01) (77, -7.23150193691253662109e-01) (78, 1.20540283620357513428e-01) (0, -2.71372944116592407227e-01) (1, 1.83904540538787841797e+00) (2, -1.05756509304046630859e+00) (3, -1.01628029346466064453e+00) (4, 1.39102649688720703125e+00) (5, -2.91065597534179687500e+00) (6, 1.23983323574066162109e+00) (7, 1.99755167961120605469e+00) (8, -8.44916552305221557617e-02) (9, -1.39477765560150146484e+00) (10, 2.39371493458747863770e-01) (11, 4.82223629951477050781e-02) (12, -1.42273521423339843750e+00) (13, -1.91662117838859558105e-01) (14, 2.43756294250488281250e+00) (15, -1.33415675163269042969e+00) (16, -9.13309860229492187500e+00) (17, 3.54957580566406250000e-01) (18, 2.42620080709457397461e-01) (19, -7.14275777339935302734e-01) (20, 6.04254436492919921875e+00) (21, 4.07698488235473632812e+00) (22, 3.86893296241760253906e+00) (23, 2.21951436996459960938e+00) (24, 4.27963924407958984375e+00) (25, -2.36505031585693359375e+00) (26, 2.76781558990478515625e+00) (27, -3.75496315956115722656e+00) (28, 1.18868899345397949219e+00) (29, -5.64923644065856933594e-01) (30, 1.66734051704406738281e+00) (31, -9.20540332794189453125e-01) (32, -1.22768771648406982422e+00) (33, -3.49678963422775268555e-01) (34, -3.01419734954833984375e+00) (35, -1.56028604507446289062e+00) (36, -4.65154945850372314453e-01) (37, 6.52486622333526611328e-01) (38, 3.87652248144149780273e-01) (39, 6.19999587535858154297e-01) (40, 1.69302582740783691406e+00) (41, -2.14544963836669921875e+00) (42, 1.33966124057769775391e+00) (43, -5.88444590568542480469e-01) (44, 3.98726284503936767578e-01) (45, -1.41978621482849121094e+00) (46, 1.00805006027221679688e+01) (47, 8.64616781473159790039e-02) (48, 8.48787009716033935547e-01) (49, 1.98841166496276855469e+00) (50, 3.59397470951080322266e-01) (51, 9.42829608917236328125e+00) (52, 5.59620141983032226562e+00) (53, 1.04996311664581298828e+00) (54, 7.45305359363555908203e-01) (55, 2.55132883787155151367e-01) (56, 1.19257616996765136719e+00) (57, -2.52960443496704101562e+00) (58, -7.20965638756752014160e-02) (59, -2.43990707397460937500e+00) (60, 2.27048921585083007812e+00) (61, 2.83079910278320312500e+00) (62, 6.83125734329223632812e-01) (63, -3.01502752304077148438e+00) (64, -1.48734080791473388672e+00) (65, -4.64549255371093750000e+00) (66, 9.22535002231597900391e-01) (67, -2.05834102630615234375e+00) (68, -2.40602940320968627930e-01) (69, 4.04946953058242797852e-01) (70, 3.44229973852634429932e-02) (71, 1.50302040576934814453e+00) (72, 8.74431037902832031250e+00) (73, -9.87818121910095214844e-01) (74, 2.69302695989608764648e-01) (75, -3.44442272186279296875e+00) (76, 5.10333597660064697266e-01) (77, -4.64479535818099975586e-01) (78, 2.35373973846435546875e-01) (0, -1.40947484970092773438e+00) (1, 2.51831024885177612305e-01) (2, 2.54333424568176269531e+00) (3, 1.97869622707366943359e+00) (4, 6.69560527801513671875e+00) (5, 1.08668174743652343750e+01) (6, -1.41463768482208251953e+00) (7, 1.35186982154846191406e+00) (8, 2.27245616912841796875e+00) (9, 1.38464963436126708984e+00) (10, 1.01712453365325927734e+00) (11, 8.12537848949432373047e-01) (12, -3.39346981048583984375e+00) (13, -1.15661966800689697266e+00) (14, 1.22721314430236816406e+00) (15, 1.78238660097122192383e-01) (16, -1.81359827518463134766e+00) (17, 1.71956706047058105469e+00) (18, -2.07990121841430664062e+00) (19, 8.09866607189178466797e-01) (20, 1.64860761165618896484e+00) (21, -2.04247689247131347656e+00) (22, 1.18101263046264648438e+00) (23, -2.45363879203796386719e+00) (24, 8.19696068763732910156e-01) (25, -3.16549539566040039062e+00) (26, 3.54810863733291625977e-01) (27, -3.29338169097900390625e+00) (28, 5.77343225479125976562e+00) (29, 2.44815993309020996094e+00) (30, -6.25056028366088867188e-01) (31, -2.87359952926635742188e+00) (32, 5.39844703674316406250e+00) (33, 4.42418366670608520508e-01) (34, 3.78495621681213378906e+00) (35, 1.37259731292724609375e+01) (36, 5.56444466114044189453e-01) (37, -9.14271652698516845703e-01) (38, -8.49027335643768310547e-01) (39, 4.42356967926025390625e+00) (40, 2.21941351890563964844e+00) (41, 9.18114471435546875000e+00) (42, -5.80277979373931884766e-01) (43, -2.57152438163757324219e+00) (44, 1.10833930969238281250e+00) (45, -1.50479781627655029297e+00) (46, -1.90879434347152709961e-01) (47, -1.60019326210021972656e+00) (48, 4.72296357154846191406e-01) (49, -3.95205640792846679688e+00) (50, 3.47644597291946411133e-01) (51, 1.41816890239715576172e+00) (52, 1.74441540241241455078e+00) (53, 1.33223187923431396484e+00) (54, -1.20646286010742187500e+00) (55, -3.10498088598251342773e-01) (56, -1.29948401451110839844e+00) (57, 1.16692912578582763672e+00) (58, -5.67056357860565185547e-01) (59, -3.53998392820358276367e-01) (60, 2.07570266723632812500e+00) (61, -7.61028575897216796875e+00) (62, -1.00607693195343017578e+00) (63, 5.87097108364105224609e-02) (64, 5.28720319271087646484e-01) (65, 2.00969290733337402344e+00) (66, 1.68254327774047851562e+00) (67, -3.50786238908767700195e-01) (68, -1.11824512481689453125e+00) (69, -3.23417639732360839844e+00) (70, 2.87426400184631347656e+00) (71, 1.41104209423065185547e+00) (72, -5.09195685386657714844e-01) (73, 2.02113914489746093750e+00) (74, -4.21282196044921875000e+00) (75, 5.39979267120361328125e+00) (76, 9.18046092987060546875e+00) (77, 1.85537552833557128906e+00) (78, 3.29592019319534301758e-01) (0, 6.95086061954498291016e-01) (1, 1.15111720561981201172e+00) (2, 3.71517181396484375000e-01) (3, 8.99200975894927978516e-01) (4, -1.24806976318359375000e+00) (5, -3.24178886413574218750e+00) (6, -3.28912997245788574219e+00) (7, -3.89781653881072998047e-01) (8, 9.02405023574829101562e-01) (9, -4.18732315301895141602e-01) (10, 5.54330348968505859375e-01) (11, -1.62889838218688964844e+00) (12, -1.95067942142486572266e-01) (13, -9.25233125686645507812e-01) (14, 3.86925601959228515625e+00) (15, 1.07566845417022705078e+00) (16, -2.16020464897155761719e+00) (17, 3.13578653335571289062e+00) (18, 1.03329241275787353516e+00) (19, 4.80689382553100585938e+00) (20, 7.92333066463470458984e-01) (21, 1.28023099899291992188e+00) (22, 9.42252159118652343750e-01) (23, -4.14733648300170898438e+00) (24, 3.26529836654663085938e+00) (25, 7.89040565490722656250e+00) (26, 1.95875024795532226562e+00) (27, -1.04963850975036621094e+00) (28, 1.23053026199340820312e+00) (29, 1.38483047485351562500e+00) (30, 3.31665277481079101562e+00) (31, 3.94748473167419433594e+00) (32, -9.85142469406127929688e-01) (33, -2.03945875167846679688e-01) (34, 2.85065841674804687500e+00) (35, 4.37151908874511718750e-01) (36, -2.11390686035156250000e+00) (37, -9.66260790824890136719e-01) (38, 7.79587924480438232422e-01) (39, 2.33961391448974609375e+00) (40, 5.30985474586486816406e-01) (41, 6.99610486626625061035e-02) (42, 1.22784066200256347656e+00) (43, -6.74328446388244628906e-01) (44, 3.05532485246658325195e-01) (45, -7.45954811573028564453e-01) (46, -1.62770450115203857422e-01) (47, -3.44706892967224121094e-01) (48, -3.52108091115951538086e-01) (49, -3.81631642580032348633e-01) (50, 1.32780462503433227539e-01) (51, -3.67188644409179687500e+00) (52, 1.16404056549072265625e+00) (53, 5.20998048782348632812e+00) (54, 8.80178868770599365234e-01) (55, 2.89770889282226562500e+00) (56, 3.18488931655883789062e+00) (57, 5.54433107376098632812e-01) (58, -1.15874290466308593750e+00) (59, 6.10661506652832031250e+00) (60, -1.48530209064483642578e+00) (61, -8.93453001976013183594e-01) (62, 1.45595264434814453125e+00) (63, -7.24060654640197753906e-01) (64, 2.13328266143798828125e+00) (65, -2.37982034683227539062e+00) (66, 1.50864517688751220703e+00) (67, -1.14925837516784667969e+00) (68, 1.36283203959465026855e-01) (69, 4.31108027696609497070e-02) (70, 4.22999471426010131836e-01) (71, -1.76721596717834472656e+00) (72, 1.94006907939910888672e+00) (73, 2.21413803100585937500e+00) (74, 1.39957833290100097656e+00) (75, -3.06887650489807128906e+00) (76, -3.41871052980422973633e-01) (77, 4.52813768386840820312e+00) (78, 3.11898052692413330078e-01) (0, -2.04929137229919433594e+00) (1, 2.58699464797973632812e+00) (2, 2.76228332519531250000e+00) (3, -4.75234031677246093750e+00) (4, -2.00500226020812988281e+00) (5, 1.74476492404937744141e+00) (6, 1.22504055500030517578e+00) (7, 3.92947483062744140625e+00) (8, -1.21210157871246337891e+00) (9, 1.27877721786499023438e+01) (10, -1.18761944770812988281e+00) (11, -1.64931583404541015625e+00) (12, 1.48442535400390625000e+01) (13, -4.57814782857894897461e-01) (14, -1.36276030540466308594e+00) (15, 2.44429826736450195312e+00) (16, -1.16438627243041992188e+01) (17, -3.42249870300292968750e+00) (18, -1.02562212944030761719e+00) (19, 2.39707207679748535156e+00) (20, 1.49106025695800781250e+00) (21, 3.57154679298400878906e+00) (22, -1.32685875892639160156e+00) (23, 7.69298219680786132812e+00) (24, 2.37276101112365722656e+00) (25, 8.90025901794433593750e+00) (26, 6.85502672195434570312e+00) (27, 2.22252058982849121094e+00) (28, -5.77680990099906921387e-02) (29, 3.54085862636566162109e-01) (30, 5.24799299240112304688e+00) (31, 1.65145039558410644531e+00) (32, -2.73767352104187011719e+00) (33, 1.19000339508056640625e+00) (34, 4.08269500732421875000e+01) (35, 1.58278179168701171875e+00) (36, 1.48062914609909057617e-01) (37, -1.78984725475311279297e+00) (38, 2.79011034965515136719e+00) (39, -7.97815978527069091797e-01) (40, -2.17730665206909179688e+00) (41, -1.10588836669921875000e+00) (42, 1.69932281970977783203e+00) (43, -4.34277820587158203125e+00) (44, -1.96679580211639404297e+00) (45, -8.88105964660644531250e+00) (46, 8.27714538574218750000e+00) (47, 2.34890961647033691406e+00) (48, -2.74519175291061401367e-01) (49, 1.43312072753906250000e+00) (50, 2.83051109313964843750e+00) (51, 2.52447748184204101562e+00) (52, -1.22853755950927734375e+00) (53, 1.42018289566040039062e+01) (54, 9.43214702606201171875e+00) (55, 1.36560001373291015625e+01) (56, -1.11736333370208740234e+00) (57, 1.27650024369359016418e-02) (58, 2.01317958831787109375e+01) (59, 2.39732480049133300781e+00) (60, -7.69476890563964843750e-01) (61, 3.55721397399902343750e+01) (62, 4.16875648498535156250e+01) (63, 9.20010387897491455078e-01) (64, 3.93931746482849121094e+00) (65, 8.64720153808593750000e+00) (66, -3.10005331039428710938e+00) (67, 3.11045932769775390625e+00) (68, 7.04608976840972900391e-01) (69, 1.95578932762145996094e+00) (70, 5.26436328887939453125e-01) (71, 9.68025624752044677734e-01) (72, -2.66595506668090820312e+00) (73, -1.33441317081451416016e+00) (74, -5.29163026809692382812e+00) (75, 1.98082789778709411621e-01) (76, -1.52323484420776367188e+00) (77, 6.29276275634765625000e+00) (78, 4.09752093255519866943e-02) (0, 2.01261544227600097656e+00) (1, 1.46191656589508056641e+00) (2, -9.22651195526123046875e+00) (3, -9.62034046649932861328e-01) (4, 9.03927803039550781250e-01) (5, -4.75348186492919921875e+00) (6, -2.32299923896789550781e+00) (7, -5.02663183212280273438e+00) (8, 2.85686492919921875000e+00) (9, 5.29501247406005859375e+00) (10, 8.36741447448730468750e-01) (11, -2.24061489105224609375e+00) (12, 1.14131374359130859375e+01) (13, -2.56628108024597167969e+00) (14, 1.78765118122100830078e+00) (15, -3.58349829912185668945e-02) (16, 3.72903728485107421875e+00) (17, -2.71110558509826660156e+00) (18, 3.51522374153137207031e+00) (19, -5.70785999298095703125e-01) (20, 1.96111946105957031250e+01) (21, -4.39942836761474609375e-01) (22, -2.80277729034423828125e+00) (23, 1.13989388942718505859e+00) (24, 2.63540816307067871094e+00) (25, -3.86985373497009277344e+00) (26, 1.60648524761199951172e+00) (27, 8.40347385406494140625e+00) (28, 4.79560232162475585938e+00) (29, -2.10878801345825195312e+00) (30, -1.92222356796264648438e+00) (31, 3.18476915359497070312e+00) (32, -1.17791116237640380859e+00) (33, -3.36762070655822753906e+00) (34, -1.91476535797119140625e+00) (35, 2.72839641571044921875e+00) (36, 2.03681850433349609375e+00) (37, -2.46147465705871582031e+00) (38, 1.01401269435882568359e+00) (39, 4.36426305770874023438e+00) (40, 9.35977339744567871094e-01) (41, 9.49400615692138671875e+00) (42, -1.07015609741210937500e+00) (43, -1.77088892459869384766e+00) (44, 2.12531509399414062500e+01) (45, 2.17590403556823730469e+00) (46, -7.84782695770263671875e+00) (47, -1.46886241436004638672e+00) (48, 3.69615340232849121094e+00) (49, 1.24682159423828125000e+01) (50, 1.33714437484741210938e+00) (51, 1.82017540931701660156e+00) (52, 9.03622984886169433594e-01) (53, 2.43914270401000976562e+00) (54, 2.20134353637695312500e+00) (55, 8.38327184319496154785e-02) (56, 6.40818059444427490234e-01) (57, 1.05420362949371337891e+00) (58, -2.07987618446350097656e+00) (59, 3.44216499328613281250e+01) (60, -1.19998586177825927734e+00) (61, 3.66839623451232910156e+00) (62, 1.97208766937255859375e+01) (63, -7.04451441764831542969e-01) (64, -1.21171605587005615234e+00) (65, -2.10251975059509277344e+00) (66, 1.05323505401611328125e+00) (67, 1.96467801928520202637e-01) (68, 7.17977447509765625000e+01) (69, -1.59704995155334472656e+00) (70, -7.66520857810974121094e-01) (71, 4.27308320999145507812e+00) (72, -3.24020123481750488281e+00) (73, -3.09105968475341796875e+00) (74, -3.34642767906188964844e+00) (75, 9.23852503299713134766e-01) (76, -3.32182675600051879883e-01) (77, -1.41350805759429931641e+00) (78, -3.92194204032421112061e-02) (0, 7.48093080520629882812e+00) (1, -1.37280952930450439453e+00) (2, -1.53414523601531982422e+00) (3, -1.71725705265998840332e-01) (4, 8.53351950645446777344e-01) (5, 1.93064832687377929688e+00) (6, 1.03844773769378662109e+00) (7, 5.30979931354522705078e-01) (8, -1.26706635951995849609e+00) (9, -1.33970522880554199219e+00) (10, 1.21702098846435546875e+00) (11, -1.07885591685771942139e-01) (12, -1.22283208370208740234e+00) (13, -7.71359741687774658203e-01) (14, 1.52853024005889892578e+00) (15, 2.08315208554267883301e-01) (16, -1.41622722148895263672e+00) (17, -4.87524181604385375977e-01) (18, 7.43904531002044677734e-01) (19, -5.67189633846282958984e-01) (20, 1.39344072341918945312e+00) (21, -1.87638723850250244141e+00) (22, 1.90938651561737060547e+00) (23, -2.40209206938743591309e-01) (24, -1.61788076162338256836e-01) (25, 3.04860019683837890625e+00) (26, 3.29044055938720703125e+00) (27, -1.42536211013793945312e+00) (28, 2.44155025482177734375e+00) (29, -7.13378548622131347656e-01) (30, 2.66420769691467285156e+00) (31, -1.22562503814697265625e+00) (32, -7.23322689533233642578e-01) (33, -9.37710464000701904297e-01) (34, -6.69949591159820556641e-01) (35, -6.97576701641082763672e-01) (36, 1.81724166870117187500e+00) (37, -2.00737953186035156250e+00) (38, -1.04963898658752441406e+00) (39, 1.29040193557739257812e+00) (40, 6.68474912643432617188e+00) (41, 1.20574128627777099609e+00) (42, -3.27756834030151367188e+00) (43, -3.43389344215393066406e+00) (44, 1.72417783737182617188e+00) (45, 5.15403687953948974609e-01) (46, -3.94719302654266357422e-01) (47, 3.01202684640884399414e-01) (48, -1.93593963980674743652e-01) (49, 3.24155378341674804688e+00) (50, -3.64086151123046875000e-01) (51, -2.58592870086431503296e-02) (52, 2.29316687583923339844e+00) (53, 4.10313248634338378906e-01) (54, 1.30381512641906738281e+00) (55, 2.64539811760187149048e-02) (56, 1.49765133857727050781e+00) (57, 8.27194273471832275391e-01) (58, 7.18630671501159667969e-01) (59, 1.12060153484344482422e+00) (60, -1.11296474933624267578e-01) (61, 1.10652840137481689453e+00) (62, -1.63799762725830078125e+00) (63, -4.84882354736328125000e-01) (64, 2.60540485382080078125e-01) (65, -1.06740202754735946655e-02) (66, 2.03352761268615722656e+00) (67, 1.58976450562477111816e-01) (68, -1.09528088569641113281e+00) (69, -1.89741086959838867188e+00) (70, 1.44722652435302734375e+00) (71, 3.89161318540573120117e-01) (72, -2.47678542137145996094e+00) (73, -1.41937136650085449219e+00) (74, -1.10222983360290527344e+00) (75, -1.04133641719818115234e+00) (76, -9.70016598701477050781e-01) (77, 1.19347834587097167969e+00) (78, 1.27017855644226074219e-01) (0, 8.64803493022918701172e-01) (1, -1.14142942428588867188e+00) (2, -4.50396299362182617188e+00) (3, -1.87789574265480041504e-02) (4, 9.47911083698272705078e-01) (5, 7.42052942514419555664e-02) (6, 4.49580997228622436523e-01) (7, 9.20466995239257812500e+00) (8, 1.23167797923088073730e-01) (9, -9.02363121509552001953e-01) (10, 3.68838286399841308594e+00) (11, 1.45434117317199707031e+00) (12, 9.72397327423095703125e-01) (13, 7.76717185974121093750e-01) (14, -8.08985829353332519531e-01) (15, -9.05581533908843994141e-01) (16, -1.60942482948303222656e+00) (17, 2.05694055557250976562e+00) (18, 2.30282858014106750488e-01) (19, 2.21922859549522399902e-01) (20, 7.28445053100585937500e-01) (21, -4.87914752960205078125e+00) (22, -2.90049333125352859497e-02) (23, -1.43185049295425415039e-01) (24, -5.65977632999420166016e-01) (25, -5.14938473701477050781e-01) (26, 9.10701453685760498047e-01) (27, -1.56468003988265991211e-01) (28, -7.19566464424133300781e-01) (29, -1.01183998584747314453e+00) (30, 7.40047216415405273438e-01) (31, 2.95702725648880004883e-01) (32, 1.06407773494720458984e+00) (33, -3.35154384374618530273e-02) (34, 4.97499799728393554688e+00) (35, -7.18168079853057861328e-01) (36, -4.65635240077972412109e-01) (37, -1.11285507678985595703e+00) (38, 1.17490708827972412109e+00) (39, 7.56338715553283691406e-01) (40, 5.78344345092773437500e+00) (41, 5.04990518093109130859e-01) (42, -3.09055280685424804688e+00) (43, 3.92793273925781250000e+00) (44, 3.94853353500366210938e-01) (45, -6.98634088039398193359e-01) (46, -5.41433274745941162109e-01) (47, -1.01047217845916748047e+00) (48, 1.75505065917968750000e+00) (49, -2.07763507962226867676e-01) (50, -1.02695763111114501953e+00) (51, 9.04430985450744628906e-01) (52, -4.30025160312652587891e-01) (53, 6.93359196186065673828e-01) (54, 7.71179723739624023438e+00) (55, 1.65837869048118591309e-01) (56, 6.81323575973510742188e+00) (57, -3.70893508195877075195e-01) (58, -8.11561405658721923828e-01) (59, 1.50773450732231140137e-01) (60, 4.32898902893066406250e+00) (61, -2.46496605873107910156e+00) (62, 5.16469329595565795898e-02) (63, -4.13546562194824218750e-01) (64, -3.35884839296340942383e-01) (65, -5.34015953540802001953e-01) (66, 2.31139838695526123047e-01) (67, 3.78336533904075622559e-02) (68, -2.66350805759429931641e-01) (69, 8.75524997711181640625e-01) (70, 4.01254147291183471680e-01) (71, -5.87850689888000488281e-01) (72, -8.33895742893218994141e-01) (73, 8.22171866893768310547e-01) (74, 3.87647986412048339844e-01) (75, -1.98182237148284912109e+00) (76, 2.08738565444946289062e+00) (77, -5.89349091053009033203e-01) (78, 2.26641625165939331055e-01) (0, 5.01336860656738281250e+00) (1, -1.12020432949066162109e+00) (2, 1.04341697692871093750e+00) (3, 1.77598261833190917969e+00) (4, 7.80438303947448730469e-01) (5, 3.26844167709350585938e+00) (6, 2.26196035742759704590e-01) (7, -1.79933226108551025391e+00) (8, 1.38674449920654296875e+00) (9, -7.72370100021362304688e-01) (10, -8.52784156799316406250e-01) (11, -3.39359903335571289062e+00) (12, 1.12280935049057006836e-01) (13, 6.49515450000762939453e-01) (14, 4.07583802938461303711e-01) (15, 1.75697064399719238281e+00) (16, -4.27335500717163085938e+00) (17, -6.86040282249450683594e-01) (18, -4.70481967926025390625e+00) (19, -4.66023832559585571289e-01) (20, 2.12457966804504394531e+00) (21, 1.42877352237701416016e+00) (22, -2.33960247039794921875e+00) (23, 9.14037942886352539062e-01) (24, -9.69675183296203613281e-01) (25, -1.19263088703155517578e+00) (26, 7.59159898757934570312e+00) (27, 5.84620571136474609375e+00) (28, -1.26244857907295227051e-01) (29, 1.34686827659606933594e+00) (30, 3.86157703399658203125e+00) (31, -9.93582665920257568359e-01) (32, -1.67901086807250976562e+00) (33, -6.56415343284606933594e-01) (34, -1.75750041007995605469e+00) (35, -8.68125319480895996094e-01) (36, -9.92524445056915283203e-01) (37, -2.32476854324340820312e+00) (38, -7.11661338806152343750e-01) (39, 5.45601606369018554688e-01) (40, 1.18525922298431396484e+00) (41, 7.62579977512359619141e-01) (42, -2.84786224365234375000e+00) (43, 1.09704256057739257812e+00) (44, -3.15396338701248168945e-02) (45, 2.38954544067382812500e-01) (46, 3.44501852989196777344e+00) (47, -6.93709310144186019897e-03) (48, -4.48118239641189575195e-01) (49, -1.60165464878082275391e+00) (50, 9.55530166625976562500e-01) (51, 6.38876497745513916016e-01) (52, 1.54473769664764404297e+00) (53, 1.14499890804290771484e+00) (54, -2.16304630041122436523e-01) (55, -4.35361474752426147461e-01) (56, 1.23802461624145507812e+01) (57, 6.08499717712402343750e+00) (58, -1.44319698214530944824e-01) (59, 2.85636901855468750000e-01) (60, 1.24389564990997314453e+00) (61, -5.05518198013305664062e+00) (62, 1.00620126724243164062e+00) (63, 3.11266809701919555664e-01) (64, -4.11037540435791015625e+00) (65, 1.10940861701965332031e+00) (66, 2.20243668556213378906e+00) (67, -2.06623952835798263550e-02) (68, -3.61837100982666015625e+00) (69, -2.53824496269226074219e+00) (70, -2.52837777137756347656e-01) (71, 7.46217489242553710938e-01) (72, 9.35357734560966491699e-02) (73, -1.06496894359588623047e+00) (74, -1.50854811072349548340e-01) (75, 8.87254655361175537109e-01) (76, -1.28673806786537170410e-01) (77, -2.51219868659973144531e+00) (78, 8.88534039258956909180e-02) (0, 1.14907681941986083984e+00) (1, -2.72616696357727050781e+00) (2, -1.46074557304382324219e+00) (3, 7.31894791126251220703e-01) (4, 2.57373833656311035156e+00) (5, 3.52436804771423339844e+00) (6, -5.24273872375488281250e-01) (7, 1.53991961479187011719e+00) (8, 1.06177520751953125000e+01) (9, 1.34327375888824462891e+00) (10, -6.46371245384216308594e-02) (11, 3.47384071350097656250e+00) (12, -1.32307493686676025391e+00) (13, -5.43512868881225585938e+00) (14, 1.58008587360382080078e+00) (15, -3.30892968177795410156e+00) (16, 1.76182866096496582031e+00) (17, 3.51332366466522216797e-01) (18, -1.69952189922332763672e+00) (19, -2.45901298522949218750e+00) (20, 1.96261024475097656250e+00) (21, -9.83137845993041992188e-01) (22, 7.44819045066833496094e-01) (23, -2.06826090812683105469e+00) (24, 5.90236167907714843750e+01) (25, -2.13222885131835937500e+00) (26, 3.02738070487976074219e+00) (27, -3.02662324905395507812e+00) (28, 9.98431518673896789551e-02) (29, 5.13803052902221679688e+00) (30, 1.05999469757080078125e+01) (31, 1.16335296630859375000e+00) (32, 2.35819649696350097656e+00) (33, -1.40655791759490966797e+00) (34, -3.03743481636047363281e+00) (35, 6.66871368885040283203e-01) (36, 2.44920825958251953125e+00) (37, -1.82647931575775146484e+00) (38, 1.88494101166725158691e-01) (39, 1.10255165100097656250e+01) (40, -2.65640258789062500000e-01) (41, -8.22621658444404602051e-02) (42, 9.95048761367797851562e-01) (43, -3.69619989395141601562e+00) (44, 1.60495197772979736328e+00) (45, -2.27314758300781250000e+00) (46, -2.41445350646972656250e+00) (47, 1.82434844970703125000e+00) (48, -9.01799857616424560547e-01) (49, -9.25450384616851806641e-01) (50, 2.61447763442993164062e+00) (51, -1.88088822364807128906e+00) (52, 2.20675039291381835938e+00) (53, 5.71841239929199218750e-01) (54, -1.12339282035827636719e+00) (55, -8.36070850491523742676e-02) (56, 2.46235966682434082031e+00) (57, -2.46025609970092773438e+00) (58, -2.53270602226257324219e+00) (59, 8.51964378356933593750e+00) (60, 3.17900955677032470703e-01) (61, 1.24217576980590820312e+01) (62, -2.25915956497192382812e+00) (63, 1.01267743110656738281e+00) (64, 3.49094755947589874268e-02) (65, 1.22087087631225585938e+01) (66, 1.57845890522003173828e+00) (67, -4.11246299743652343750e+00) (68, 4.37975883483886718750e+00) (69, -1.56936204433441162109e+00) (70, 3.03549633026123046875e+01) (71, -9.35290515422821044922e-01) (72, -3.06051135063171386719e+00) (73, -1.57816171646118164062e+00) (74, 3.60162168741226196289e-01) (75, 4.31731462478637695312e+00) (76, -4.69324737787246704102e-01) (77, 3.92430377006530761719e+00) (78, 2.11195833981037139893e-02) (79, 1.93195497989654541016e+00) (80, -2.17399239540100097656e+00) (81, -2.39932107925415039062e+00) (82, 2.15059137344360351562e+00) (83, 3.24022150039672851562e+00) (84, -1.95181047916412353516e+00) (85, -2.04167151451110839844e+00) (86, -2.14991402626037597656e+00) (87, -3.09789538383483886719e+00) (88, 1.57610464096069335938e+00) (89, -1.93470323085784912109e+00) (90, 1.68619811534881591797e+00) (91, -1.96260094642639160156e+00) (92, 3.09286379814147949219e+00) (93, -2.09972190856933593750e+00) (94, -1.62393105030059814453e+00) (95, 2.36535549163818359375e+00) (96, -1.64636373519897460938e+00) (97, 2.49577569961547851562e+00) (98, -2.80026340484619140625e+00) (99, 8.14352512359619140625e-01) (100, 1.73638856410980224609e+00) (101, 1.64488768577575683594e+00) (102, 1.22839117050170898438e+00) (103, -1.90221583843231201172e+00) (104, -2.17117190361022949219e+00) (105, 2.79924249649047851562e+00) (106, 1.26470375061035156250e+00) (107, 1.48599231243133544922e+00) (108, -1.88675308227539062500e+00) (109, 1.34847164154052734375e-01) 
